{"learner":{"attributes":{"best_iteration":"249","best_ntree_limit":"250"},"feature_names":[],"feature_types":[],"gradient_booster":{"model":{"gbtree_model_param":{"num_parallel_tree":"1","num_trees":"250","size_leaf_vector":"0"},"tree_info":[0,0,0,0,0,0,0,0,0,0,0,0,0,0,0,0,0,0,0,0,0,0,0,0,0,0,0,0,0,0,0,0,0,0,0,0,0,0,0,0,0,0,0,0,0,0,0,0,0,0,0,0,0,0,0,0,0,0,0,0,0,0,0,0,0,0,0,0,0,0,0,0,0,0,0,0,0,0,0,0,0,0,0,0,0,0,0,0,0,0,0,0,0,0,0,0,0,0,0,0,0,0,0,0,0,0,0,0,0,0,0,0,0,0,0,0,0,0,0,0,0,0,0,0,0,0,0,0,0,0,0,0,0,0,0,0,0,0,0,0,0,0,0,0,0,0,0,0,0,0,0,0,0,0,0,0,0,0,0,0,0,0,0,0,0,0,0,0,0,0,0,0,0,0,0,0,0,0,0,0,0,0,0,0,0,0,0,0,0,0,0,0,0,0,0,0,0,0,0,0,0,0,0,0,0,0,0,0,0,0,0,0,0,0,0,0,0,0,0,0,0,0,0,0,0,0,0,0,0,0,0,0,0,0,0,0,0,0,0,0,0,0,0,0,0,0,0,0,0,0],"trees":[{"base_weights":[-1.081313E0,-1.5182059E0,1.4203316E0,-1.7293233E0,4.8877147E-1,1.7571884E0,-1.6788322E0,-1.7793143E0,1.9587629E0,1.6765286E0,-1.9047619E0,-2.8037384E-1,1.9442023E0,-0E0,-1.965812E0,-1.8034649E0,1.9148936E0,1.9914347E0,-1.9047619E0,-1.9827586E0,-9.0909094E-1,1.5384616E0,-1.9298246E0,1.9786097E0,3.7037036E-1,-1.8170158E0,1.8518518E0,9.0909094E-1,1.875E0,1.9963702E0,9.0909094E-1,-1.8279263E0,1.8181819E0,-1.570632E0,-1.9414071E0,-1.6296647E0,1.8918918E0,-1.9491879E0,-1.0638298E0,-1.715439E0,-3.649635E-1,-1.9531577E0,-9.0909094E-1,-0E0,-1.8518518E0,-1.7822291E0,1.8918918E0,5.7471263E-1,-1.9230769E0,-1.9570707E0,-1.25E0,-1.4490675E0,-1.9648563E0,1.9298246E0,-1.875E0,-1.9609921E0,-1.3513514E0,-1.316726E0,-1.9708029E0,-1.9649348E0,-1.4285715E0,-1.1864407E0,-1.9565217E0,-1.8838527E0,-1.9987756E0,-9.0909094E-1,-1.8181819E0,-1.0791367E0,-1.9298246E0,-1.9394376E0,1.1111112E0,-1.3513514E0,-1.0471205E0,-1.9667171E0,-1.3432835E0,-1.9815668E0,-9.0909094E-1,-0E0,-1.9148936E0],"categories":[],"categories_nodes":[],"categories_segments":[],"categories_sizes":[],"default_left":[1,1,1,1,1,1,1,1,0,1,1,1,1,0,0,1,0,0,0,0,0,1,0,1,0,1,0,0,0,0,0,1,0,1,1,1,0,1,1,1,1,1,0,0,0,1,0,1,0,1,0,1,0,0,0,1,0,1,0,1,1,1,0,1,0,0,0,1,0,1,0,1,1,1,1,0,0,0,0],"id":0,"left_children":[1,3,5,7,9,11,13,15,-1,17,19,21,23,-1,-1,25,-1,-1,-1,-1,-1,27,-1,29,-1,31,-1,-1,-1,-1,-1,33,-1,35,37,39,-1,41,43,45,47,49,-1,-1,-1,51,-1,53,-1,55,-1,57,-1,-1,-1,59,-1,61,-1,63,65,67,-1,69,-1,-1,-1,-1,-1,73,-1,-1,-1,75,77,-1,-1,-1,-1],"loss_changes":[5.0963995E2,1.6823303E2,7.269464E1,6.655615E1,1.0792448E2,2.3908386E1,3.3002682E0,3.1959595E1,0E0,2.89683E1,7.982559E-1,1.634732E1,3.0322876E0,0E0,0E0,1.7776978E1,0E0,0E0,0E0,0E0,0E0,3.8024473E-1,0E0,8.841553E-1,0E0,1.4247681E1,0E0,0E0,0E0,0E0,0E0,9.909912E0,0E0,2.2301971E1,1.4474487E0,1.1419891E1,0E0,8.138428E-1,1.9700551E0,2.4213715E1,1.0139758E1,4.13208E-1,0E0,0E0,0E0,5.638489E0,0E0,1.4802255E1,0E0,2.9937744E-1,0E0,2.1467896E0,0E0,0E0,0E0,2.1435547E-1,0E0,2.1101723E0,0E0,2.6513672E-1,2.5973988E-1,1.6742744E0,0E0,1.1968613E1,0E0,0E0,0E0,4.0210724E-2,0E0,8.6364746E-1,0E0,0E0,0E0,8.5798645E-1,2.5722451E0,0E0,0E0,0E0,0E0],"parents":[2147483647,0,0,1,1,2,2,3,3,4,4,5,5,6,6,7,7,9,9,10,10,11,11,12,12,15,15,21,21,23,23,25,25,31,31,33,33,34,34,35,35,37,37,38,38,39,39,40,40,41,41,45,45,47,47,49,49,51,51,55,55,57,57,59,59,60,60,61,61,63,63,67,67,69,69,73,73,74,74],"right_children":[2,4,6,8,10,12,14,16,-1,18,20,22,24,-1,-1,26,-1,-1,-1,-1,-1,28,-1,30,-1,32,-1,-1,-1,-1,-1,34,-1,36,38,40,-1,42,44,46,48,50,-1,-1,-1,52,-1,54,-1,56,-1,58,-1,-1,-1,60,-1,62,-1,64,66,68,-1,70,-1,-1,-1,-1,-1,74,-1,-1,-1,76,78,-1,-1,-1,-1],"split_conditions":[1.5E0,5E-1,1.65E1,4.5E0,5E-1,1.5E0,3E0,2E0,4.896907E-2,4.5E0,1.9E1,5E-1,2.5E0,-0E0,-4.91453E-2,7E0,4.7872342E-2,4.9785867E-2,-4.761905E-2,-4.9568966E-2,-2.2727273E-2,2.5E0,-4.8245616E-2,1.3E1,9.259259E-3,8.5E0,4.6296295E-2,2.2727273E-2,4.6875E-2,4.9909256E-2,2.2727273E-2,5E-1,4.5454547E-2,5E-1,1.5E0,5E-1,4.7297295E-2,2.5E0,4.5E0,5E-1,3.5E0,1.05E1,-2.2727273E-2,-0E0,-4.6296295E-2,5E-1,4.7297295E-2,5E-1,-4.8076924E-2,5E0,-3.125E-2,5E-1,-4.9121406E-2,4.8245616E-2,-4.6875E-2,5E-1,-3.3783786E-2,5E-1,-4.9270075E-2,5E-1,3E0,2E0,-4.8913043E-2,5E-1,-4.996939E-2,-2.2727273E-2,-4.5454547E-2,-2.6978418E-2,-4.8245616E-2,5E-1,2.777778E-2,-3.3783786E-2,-2.6178012E-2,2.5E0,1.5E0,-4.953917E-2,-2.2727273E-2,-0E0,-4.7872342E-2],"split_indices":[19,43,48,8,175,45,2,60,0,32,48,99,47,0,0,21,0,0,0,0,0,5,0,88,0,53,0,0,0,0,0,27,0,30,15,2,0,170,2,24,5,30,0,0,0,5,0,24,0,137,0,22,0,0,0,127,0,10,0,37,3,1,0,78,0,0,0,1,0,189,0,2147483647,2147483647,28,34,0,0,0,0],"split_type":[0,0,0,0,0,0,0,0,0,0,0,0,0,0,0,0,0,0,0,0,0,0,0,0,0,0,0,0,0,0,0,0,0,0,0,0,0,0,0,0,0,0,0,0,0,0,0,0,0,0,0,0,0,0,0,0,0,0,0,0,0,0,0,0,0,0,0,0,0,0,0,0,0,0,0,0,0,0,0],"sum_hessian":[4.66E2,3.9675E2,6.925E1,3.59E2,3.775E1,6.25E1,6.75E0,3.5425E2,4.75E0,2.525E1,1.25E1,5.25E0,5.725E1,1E0,5.75E0,3.52E2,2.25E0,2.325E1,2E0,1.15E1,1E0,2.5E0,2.75E0,5.6E1,1.25E0,3.5075E2,1.25E0,1E0,1.5E0,5.5E1,1E0,3.4975E2,1E0,1.075E2,2.4225E2,1.0575E2,1.75E0,2.4E2,2.25E0,9.9E1,6.75E0,2.39E2,1E0,1E0,1.25E0,9.725E1,1.75E0,4.25E0,2.5E0,2.375E2,1.5E0,3.475E1,6.25E1,2.75E0,1.5E0,2.3575E2,1.75E0,2.8E1,6.75E0,2.3375E2,2E0,2.35E1,4.5E0,7.05E1,1.6325E2,1E0,1E0,2.075E1,2.75E0,6.925E1,1.25E0,1.75E0,1.9E1,6.6E1,3.25E0,6.5E1,1E0,1E0,2.25E0],"tree_param":{"num_deleted":"2","num_feature":"210","num_nodes":"79","size_leaf_vector":"0"}},{"base_weights":[-1.083783E0,-1.49425E0,1.3055483E0,-1.6895319E0,5.274213E-1,1.6776377E0,-1.9279128E0,-1.7277292E0,1.914674E0,1.942179E0,-1.5933623E0,-1.4902511E-1,1.8944068E0,-1.7458299E0,1.4299573E0,-3.1486252E-1,-1.9360484E0,1.3538686E0,-1.8898673E0,1.9302931E0,3.293594E-1,-1.7614601E0,1.8343228E0,-1.8460842E0,1.8067995E0,1.8809466E0,3.360349E-1,1.9487162E0,1.0729333E0,-1.5864398E0,-1.9193425E0,-1.6480905E0,7.8624505E-1,-1.9347221E0,-1.2314248E0,-1.6748593E0,8.0080837E-1,1.896197E0,-1.8208954E0,-1.9400089E0,-1.0831246E0,3.7532935E-1,-1.8914416E0,-1.4176345E0,-1.7982793E0,-1.9454178E0,-1.3115075E0,-1.2322208E0,-1.9376538E0,-1.8380708E0,-8.9891577E-1,-1.1319431E0,-1.7644945E0,-1.8744088E0,6.294716E-1,1.106978E0,-1.6262308E0,-1.0441629E0,-1.8936234E0,-1.9169961E0,-1.0858866E0,-1.8830092E0,-1.0834744E0,-1.8686068E0,-1.0837921E0,-9.7898686E-1,-1.8742784E0,-1.8918208E0,-1.0835837E0,-1.1063844E0,1.2206826E0,-1.9093101E0,-1.5431101E0,-1.0563693E0,-1.8298594E0,-1.9281766E0,-1.6130106E0,-3.335968E-1,-1.9037627E0,-3.6032906E-1,-1.9129751E0],"categories":[],"categories_nodes":[],"categories_segments":[],"categories_sizes":[],"default_left":[1,1,1,1,1,1,0,1,0,0,1,1,1,1,0,1,0,1,0,1,0,1,0,0,0,0,0,0,0,1,1,1,1,1,1,1,0,0,0,1,0,0,0,1,1,0,0,1,0,1,1,1,1,1,0,0,1,1,0,0,0,1,0,0,0,1,0,1,0,1,0,1,1,0,0,0,1,0,0,0,0],"id":1,"left_children":[1,3,5,7,9,11,-1,13,-1,-1,15,17,19,21,-1,23,-1,25,-1,27,-1,29,-1,-1,-1,-1,-1,-1,-1,31,33,35,37,39,41,43,-1,-1,-1,45,-1,-1,-1,47,49,-1,-1,51,-1,53,55,57,59,61,-1,-1,63,65,-1,-1,-1,67,-1,-1,-1,69,-1,71,-1,73,-1,75,77,-1,-1,-1,79,-1,-1,-1,-1],"loss_changes":[4.568092E2,1.5696906E2,8.250995E1,5.0221558E1,1.05559784E2,2.4306427E1,0E0,2.0748413E1,0E0,0E0,6.1130066E0,1.7515503E1,3.015152E0,2.0280273E1,0E0,1.03986225E1,0E0,1.8674207E0,0E0,6.370392E-1,0E0,9.509033E0,0E0,0E0,0E0,0E0,0E0,0E0,0E0,2.4851593E1,1.7321777E0,1.0934814E1,1.2927225E1,6.092529E-1,4.681655E0,4.9201355E0,0E0,0E0,0E0,3.5931396E-1,0E0,0E0,0E0,4.9029465E0,3.7635803E0,0E0,0E0,1.9131508E0,0E0,9.536194E0,7.251687E0,2.0480347E0,4.2275238E-1,5.0024414E-1,0E0,0E0,2.705059E-1,1.4580612E0,0E0,0E0,0E0,5.1553345E-1,0E0,0E0,0E0,8.077236E0,0E0,3.2156372E-1,0E0,7.779732E-1,0E0,2.244873E-1,2.2688837E0,0E0,0E0,0E0,2.315691E0,0E0,0E0,0E0,0E0],"parents":[2147483647,0,0,1,1,2,2,3,3,4,4,5,5,7,7,10,10,11,11,12,12,13,13,15,15,17,17,19,19,21,21,29,29,30,30,31,31,32,32,33,33,34,34,35,35,39,39,43,43,44,44,47,47,49,49,50,50,51,51,52,52,53,53,56,56,57,57,61,61,65,65,67,67,69,69,71,71,72,72,76,76],"right_children":[2,4,6,8,10,12,-1,14,-1,-1,16,18,20,22,-1,24,-1,26,-1,28,-1,30,-1,-1,-1,-1,-1,-1,-1,32,34,36,38,40,42,44,-1,-1,-1,46,-1,-1,-1,48,50,-1,-1,52,-1,54,56,58,60,62,-1,-1,64,66,-1,-1,-1,68,-1,-1,-1,70,-1,72,-1,74,-1,76,78,-1,-1,-1,80,-1,-1,-1,-1],"split_conditions":[1.5E0,5E-1,1.6E1,4.5E0,2.5E0,1.5E0,-4.819782E-2,4.5E0,4.786685E-2,4.8554476E-2,2.5E0,5E-1,4.5E0,1.5E0,3.5748933E-2,3.5E0,-4.840121E-2,5.5E0,-4.7246683E-2,4.5E0,8.233986E-3,5E-1,4.585807E-2,-4.6152107E-2,4.516999E-2,4.7023665E-2,8.400872E-3,4.8717905E-2,2.6823333E-2,5E-1,5E-1,3.5E0,5E-1,7E0,3E0,5E-1,2.002021E-2,4.7404926E-2,-4.5522388E-2,2.5E0,-2.7078116E-2,9.383234E-3,-4.728604E-2,5E-1,5E-1,-4.8635446E-2,-3.2787688E-2,5E-1,-4.8441347E-2,1.5E0,2.5E0,5E-1,1.5E0,2.5E0,1.573679E-2,2.7674451E-2,4.35E1,5E-1,-4.7340583E-2,-4.7924902E-2,-2.7147165E-2,3.5E0,-2.708686E-2,-4.671517E-2,-2.7094802E-2,2E0,-4.6856962E-2,5E-1,-2.7089594E-2,1E0,3.0517066E-2,1.5E0,3.5E0,-2.6409233E-2,-4.5746487E-2,-4.820442E-2,1.5E0,-8.33992E-3,-4.7594067E-2,-9.008227E-3,-4.782438E-2],"split_indices":[19,43,48,9,5,45,0,13,0,0,32,99,158,83,0,29,0,146,0,96,0,38,0,0,0,0,0,0,0,6,8,30,200,58,48,5,0,0,0,90,0,0,0,27,17,0,0,10,0,162,17,70,10,103,0,0,25,11,0,0,0,58,0,0,0,25,0,11,0,149,0,24,5,0,0,0,14,0,0,0,0],"split_type":[0,0,0,0,0,0,0,0,0,0,0,0,0,0,0,0,0,0,0,0,0,0,0,0,0,0,0,0,0,0,0,0,0,0,0,0,0,0,0,0,0,0,0,0,0,0,0,0,0,0,0,0,0,0,0,0,0,0,0,0,0,0,0,0,0,0,0,0,0,0,0,0,0,0,0,0,0,0,0,0,0],"sum_hessian":[4.6548035E2,3.9727014E2,6.8210205E1,3.622913E2,3.4978825E1,6.1214127E1,6.996077E0,3.5854352E2,3.7477736E0,2.0986992E1,1.3991831E1,6.496963E0,5.4717167E1,3.5654443E2,1.9991033E0,2.998151E0,1.099368E1,3.498708E0,2.998255E0,5.346782E1,1.2493453E0,3.550452E2,1.4992429E0,1.7489254E0,1.2492257E0,2.2491844E0,1.2495236E0,5.221845E1,1.2493722E0,1.689078E2,1.8613737E2,1.6465991E2,4.247897E0,1.8188968E2,4.2476954E0,1.6291075E2,1.7491629E0,2.998569E0,1.2493279E0,1.8064043E2,1.249247E0,1.2493627E0,2.9983325E0,5.3226913E1,1.0968384E2,1.7889137E2,1.7490641E0,3.9485313E1,1.3741598E1,1.0493663E2,4.747203E0,3.3488846E1,5.9964695E0,1.0343741E2,1.4992247E0,1.2493542E0,3.4978485E0,3.0240816E1,3.2480285E0,4.7471642E0,1.2493055E0,1.0218817E2,1.2492363E0,2.2486222E0,1.2492262E0,2.8241392E1,1.9994239E0,1.0093894E2,1.2492329E0,2.6742271E1,1.4991212E0,9.569205E1,5.2468963E0,2.5243181E1,1.4990901E0,8.944591E1,6.246133E0,1.2493787E0,3.9975176E0,1.2492526E0,4.9968805E0],"tree_param":{"num_deleted":"0","num_feature":"210","num_nodes":"81","size_leaf_vector":"0"}},{"base_weights":[-1.0580462E0,-1.5852623E0,9.615597E-1,-1.6885387E0,9.2811537E-1,1.3871238E0,-1.6844382E0,-1.706258E0,1.8316671E0,1.7891138E0,-7.527391E-1,1.594054E0,-1.6979505E0,-1.8999212E0,-4.1440254E-1,-1.2814134E0,-1.7880027E0,1.0357773E0,1.8865799E0,-1.8660489E0,1.7984717E0,1.7785197E0,-1.1172488E0,-1.0592649E0,-1.8667215E0,-1.4998746E0,1.6332979E0,-1.8034931E0,8.057561E-1,1.8417454E0,-1.7651267E0,-1.8567393E0,1.073112E0,-1.3155425E0,-1.8999553E0,1.2073748E0,1.832849E0,-1.8125404E0,-1.2742956E-2,1.8805795E0,-3.543918E-1,-1.1731893E0,-1.8814012E0,-1.8538574E0,-1.5563911E0,1.907097E0,3.5974273E-1,-1.1405416E0,-1.784175E0,-1.8681712E0,-1.2122394E0,-6.414709E-1,-1.8707559E0,-1.1057719E0,-1.7676282E0,-1.7996119E0,-1.9062669E0,3.3245157E-2,-1.8605562E0,-1.0587119E0,1.8344166E0,-1.90191E0,-1.0434245E0,-1.8290172E0,-8.2794595E-1,-8.112095E-2,-1.8724298E0,-1.8497666E0,-7.618062E-1,3.8211122E-1,-1.7974727E0,1.887919E0,-1.8389398E0,-1.8605287E0,-1.1632663E0,-1.8816919E0,-1.5692558E0,-3.173452E-1,-1.87014E0],"categories":[],"categories_nodes":[],"categories_segments":[],"categories_sizes":[],"default_left":[1,1,1,1,1,1,1,1,0,1,1,1,1,0,0,1,1,0,0,0,0,1,1,0,0,1,1,1,0,1,0,0,0,1,0,1,1,1,0,1,0,1,0,1,1,0,0,1,0,1,1,1,1,0,0,1,0,0,0,1,0,0,0,1,1,1,0,1,0,0,0,0,0,1,0,0,1,0,0],"id":2,"left_children":[1,3,5,7,9,11,13,15,-1,17,19,21,23,-1,-1,25,27,-1,-1,-1,-1,29,31,-1,-1,33,-1,37,-1,39,-1,-1,-1,41,-1,-1,-1,43,-1,45,-1,47,-1,49,51,-1,-1,53,-1,55,57,59,61,-1,-1,63,-1,-1,-1,65,-1,-1,-1,67,69,71,-1,73,-1,-1,-1,-1,-1,75,-1,-1,77,-1,-1],"loss_changes":[5.0199573E2,9.71817E1,1.1016824E2,2.270996E1,2.1578749E1,5.399643E1,3.635437E0,1.2180298E1,0E0,5.262108E-1,1.4791243E1,3.9669525E1,3.777027E-1,0E0,0E0,3.718399E1,1.217511E1,0E0,0E0,0E0,0E0,1.688913E1,8.441694E0,0E0,0E0,3.7338257E0,1.2656307E-1,4.8203735E0,0E0,6.2654724E0,0E0,0E0,0E0,2.784317E0,0E0,0E0,0E0,2.8459473E0,0E0,2.8123322E0,0E0,3.9638138E-1,0E0,2.1108398E0,1.18909E1,0E0,0E0,4.3301392E-1,0E0,3.0670166E-1,4.720748E0,1.1383517E1,6.0131073E-1,0E0,0E0,2.438507E0,0E0,0E0,0E0,7.408849E0,0E0,0E0,0E0,1.8055115E0,3.406722E0,1.5382726E1,0E0,4.2010498E-1,0E0,0E0,0E0,0E0,0E0,2.2653198E-1,0E0,0E0,2.3274984E0,0E0,0E0],"parents":[2147483647,0,0,1,1,2,2,3,3,4,4,5,5,6,6,7,7,9,9,10,10,11,11,12,12,15,15,16,16,21,21,22,22,25,25,26,26,27,27,29,29,33,33,37,37,39,39,41,41,43,43,44,44,47,47,49,49,50,50,51,51,52,52,55,55,59,59,63,63,64,64,65,65,67,67,73,73,76,76],"right_children":[2,4,6,8,10,12,14,16,-1,18,20,22,24,-1,-1,26,28,-1,-1,-1,-1,30,32,-1,-1,34,-1,38,-1,40,-1,-1,-1,42,-1,-1,-1,44,-1,46,-1,48,-1,50,52,-1,-1,54,-1,56,58,60,62,-1,-1,64,-1,-1,-1,66,-1,-1,-1,68,70,72,-1,74,-1,-1,-1,-1,-1,76,-1,-1,78,-1,-1],"split_conditions":[1.5E0,5E-1,2.5E0,1.5E0,1E0,5E-1,1E0,5E-1,4.5791678E-2,1.5E0,1.5E0,4.5E0,4E0,-4.749803E-2,-1.0360064E-2,2E0,4.5E0,2.5894433E-2,4.7164496E-2,-4.6651226E-2,4.496179E-2,1.15E1,1E0,-2.6481623E-2,-4.6668038E-2,2E0,4.083245E-2,1.5E0,2.0143902E-2,2E0,-4.412817E-2,-4.6418484E-2,2.6827801E-2,5E-1,-4.749888E-2,3.0184371E-2,4.5821227E-2,5E-1,-3.185739E-4,4.5E0,-8.8597955E-3,5E-1,-4.703503E-2,3.5E0,1.5E0,4.7677424E-2,8.993569E-3,1E0,-4.4604376E-2,5E-1,3.5E0,5E-1,3.5E0,-2.7644297E-2,-4.4190705E-2,5E-1,-4.7656674E-2,8.31129E-4,-4.6513908E-2,5E-1,4.5860417E-2,-4.754775E-2,-2.6085613E-2,1E0,5E-1,2E0,-4.6810746E-2,1.4E1,-1.9045155E-2,9.552781E-3,-4.4936817E-2,4.7197975E-2,-4.5973495E-2,2.5E0,-2.9081658E-2,-4.70423E-2,3.5E0,-7.933631E-3,-4.67535E-2],"split_indices":[0,19,47,83,60,163,151,5,0,29,160,140,2,0,0,2,136,0,0,0,0,133,190,0,0,25,2,13,0,171,0,0,0,18,0,2147483647,2147483647,11,0,158,0,62,0,162,62,0,0,149,0,18,160,23,187,0,0,17,0,0,0,18,0,0,0,103,38,17,0,123,0,0,0,0,0,2,0,0,2,0,0],"split_type":[0,0,0,0,0,0,0,0,0,0,0,0,0,0,0,0,0,0,0,0,0,0,0,0,0,0,0,0,0,0,0,0,0,0,0,0,0,0,0,0,0,0,0,0,0,0,0,0,0,0,0,0,0,0,0,0,0,0,0,0,0,0,0,0,0,0,0,0,0,0,0,0,0,0,0,0,0,0,0],"sum_hessian":[4.712167E2,3.7368747E2,9.752923E1,3.5896997E2,1.4717499E1,8.405756E1,1.3471663E1,3.5722336E2,1.7466072E0,9.728001E0,4.9894977E0,7.881913E1,5.2384334E0,1.147512E1,1.9965433E0,5.7911655E1,2.993117E2,1.2476156E0,8.480386E0,3.4923465E0,1.497151E0,7.383042E1,4.9887114E0,1.2470012E0,3.9914322E0,5.3918907E1,3.9927478E0,2.9756506E2,1.7466439E0,7.258341E1,1.2470053E0,3.7409542E0,1.2477571E0,3.7205673E1,1.6713236E1,1.4987824E0,2.4939654E0,2.9606802E2,1.4970199E0,7.133635E1,1.2470635E0,2.9972754E1,7.232917E0,2.5440819E2,4.1659847E1,7.0088875E1,1.2474788E0,2.8724543E1,1.2482119E0,2.486695E2,5.7386956E0,1.0731418E1,3.0928429E1,2.747736E1,1.247183E0,9.054453E1,1.5812495E2,1.9970417E0,3.741654E0,9.232739E0,1.4986786E0,2.9680876E1,1.2475522E0,8.7799255E1,2.745284E0,4.244008E0,4.9887314E0,8.605283E1,1.7464194E0,1.2481134E0,1.4971708E0,1.998248E0,2.2457604E0,8.4556244E1,1.496592E0,7.83197E1,6.23654E0,1.2482646E0,4.9882755E0],"tree_param":{"num_deleted":"2","num_feature":"210","num_nodes":"79","size_leaf_vector":"0"}},{"base_weights":[-1.0365858E0,-1.5350648E0,8.599647E-1,-1.6416078E0,1.2031595E0,1.6057856E0,-9.71248E-1,-1.686747E0,-3.3064684E-1,-5.227754E-1,1.7652323E0,1.812071E0,-1.2590873E0,-1.7869333E0,1.8384118E0,-1.7048283E0,1.84557E0,1.8449816E0,-1.4958731E0,1.1542383E0,-1.7781398E0,1.8494515E0,1.0349773E0,1.8547401E0,-3.2862365E-2,3.4600878E-1,-1.8255255E0,-1.866454E0,-7.9599196E-1,-1.4719299E0,-1.8210785E0,-1.8379049E0,3.463019E-1,1.8691565E0,1.0347946E0,-1.5574763E0,7.9882777E-1,-1.8327786E0,3.4170955E-1,-1.6214945E0,1.9119357E0,1.5637646E0,-1.0172075E0,-1.840974E0,-5.2884275E-1,-1.2949708E0,-1.7864728E0,1.1378156E0,1.7899123E0,-1.845029E0,-1.2357249E0,-1.1687827E0,-1.8499826E0,-1.6377265E0,-1.8623089E0,-1.8490232E0,-1.4231132E0,-1.049565E0,-1.8346266E0,-1.7425807E0,5.710648E-2,-1.0154335E0,-1.7252661E0,-9.096538E-1,-1.853211E0,-1.8181021E0,-8.256605E-1,-8.492092E-1,-6.0116184E-1],"categories":[],"categories_nodes":[],"categories_segments":[],"categories_sizes":[],"default_left":[1,1,1,1,1,1,1,1,1,1,1,1,1,1,0,1,0,0,1,0,0,0,0,1,0,0,0,0,0,1,1,0,0,0,0,1,1,1,0,1,0,1,0,1,0,1,1,1,1,1,0,1,0,1,0,1,1,1,0,0,0,1,1,1,0,0,1,1,1],"id":3,"left_children":[1,3,5,7,9,11,13,15,17,19,21,23,25,27,-1,29,-1,-1,31,-1,-1,-1,-1,33,-1,-1,-1,-1,-1,35,37,-1,-1,-1,-1,39,41,43,-1,45,-1,-1,-1,49,-1,51,53,-1,-1,-1,-1,57,-1,59,-1,-1,-1,63,-1,-1,-1,-1,-1,65,-1,-1,-1,-1,-1],"loss_changes":[4.535055E2,1.1099579E2,1.365618E2,2.1579102E1,1.3946852E1,4.2192688E1,6.671591E1,2.2886597E1,3.1442322E1,7.7538033E0,4.7255325E-1,5.22377E0,4.4532027E0,1.6244888E0,0E0,9.252991E0,0E0,0E0,5.142912E0,0E0,0E0,0E0,0E0,5.723572E-1,0E0,0E0,0E0,0E0,0E0,2.297055E1,5.987915E0,0E0,0E0,0E0,0E0,2.5490875E1,6.1823387E0,2.3916016E0,0E0,5.76828E0,0E0,9.401989E-2,0E0,3.3996582E-1,0E0,2.4274292E0,5.266571E-1,0E0,0E0,1.239624E-1,0E0,2.2703247E0,0E0,4.581505E0,0E0,0E0,1.4361095E-1,2.8164978E0,0E0,0E0,0E0,0E0,0E0,1.5902348E0,0E0,0E0,6.029129E-2,0E0,0E0],"parents":[2147483647,0,0,1,1,2,2,3,3,4,4,5,5,6,6,7,7,8,8,9,9,10,10,11,11,12,12,13,13,15,15,18,18,23,23,29,29,30,30,35,35,36,36,37,37,39,39,41,41,43,43,45,45,46,46,49,49,51,51,53,53,56,56,57,57,63,63,66,66],"right_children":[2,4,6,8,10,12,14,16,18,20,22,24,26,28,-1,30,-1,-1,32,-1,-1,-1,-1,34,-1,-1,-1,-1,-1,36,38,-1,-1,-1,-1,40,42,44,-1,46,-1,-1,-1,50,-1,52,54,-1,-1,-1,-1,58,-1,60,-1,-1,-1,64,-1,-1,-1,-1,-1,66,-1,-1,-1,-1,-1],"split_conditions":[1.5E0,5E-1,1.5E0,5E-1,5E-1,3E0,5E-1,5E-1,1.5E0,5E-1,1.5E0,1.25E1,1.5E0,2.5E0,4.5960296E-2,5E-1,4.613925E-2,4.612454E-2,1.5E0,2.8855959E-2,-4.4453498E-2,4.6236288E-2,2.5874434E-2,1.35E1,-8.2155917E-4,8.65022E-3,-4.563814E-2,-4.666135E-2,-1.9899799E-2,5E-1,1.5E0,-4.5947623E-2,8.657548E-3,4.6728913E-2,2.5869865E-2,5E-1,5E-1,6E0,8.542739E-3,5E-1,4.779839E-2,3.9094117E-2,-2.5430188E-2,5.5E0,-1.3221069E-2,5E-1,3.5E0,2.8445391E-2,4.474781E-2,-4.6125725E-2,-3.0893123E-2,5E-1,-4.6249565E-2,1.5E0,-4.655772E-2,-4.622558E-2,-3.557783E-2,2E0,-4.5865666E-2,-4.3564517E-2,1.427662E-3,-2.538584E-2,-4.3131653E-2,5E-1,-4.6330277E-2,-4.5452554E-2,-2.0641513E-2,-2.123023E-2,-1.5029046E-2],"split_indices":[0,19,24,43,45,148,15,60,6,52,24,88,77,91,0,27,0,0,78,0,0,0,0,126,0,0,0,0,0,20,21,0,0,0,0,24,24,53,0,5,0,5,0,137,0,22,25,2147483647,2147483647,189,0,10,0,25,0,2147483647,2147483647,1,0,0,0,2147483647,2147483647,1,0,0,25,2147483647,2147483647],"split_type":[0,0,0,0,0,0,0,0,0,0,0,0,0,0,0,0,0,0,0,0,0,0,0,0,0,0,0,0,0,0,0,0,0,0,0,0,0,0,0,0,0,0,0,0,0,0,0,0,0,0,0,0,0,0,0,0,0,0,0,0,0,0,0,0,0,0,0,0,0],"sum_hessian":[4.794621E2,3.7968643E2,9.977564E1,3.6550488E2,1.4181568E1,7.090826E1,2.8867384E1,3.5331094E2,1.2193932E1,3.4855676E0,1.0696E1,6.617973E1,4.7285266E0,2.2400572E1,6.466813E0,3.515631E2,1.747847E0,4.2326636E0,7.9612684E0,1.4956359E0,1.9899316E0,9.452587E0,1.2434136E0,6.468322E1,1.4965096E0,1.2435728E0,3.4849539E0,2.0654728E1,1.7458438E0,1.1750909E2,2.3405402E2,6.7147837E0,1.2464848E0,6.343986E1,1.2433611E0,1.1327315E2,4.235933E0,2.3280984E2,1.2441726E0,1.1127318E2,1.9999715E0,2.9902806E0,1.2456523E0,2.3131482E2,1.495023E0,3.764715E1,7.362603E1,1.2461977E0,1.7440829E0,2.2957193E2,1.7428975E0,3.0926302E1,6.7208476E0,2.5624739E1,4.8001293E1,2.2708388E2,2.4880514E0,2.6448408E1,4.477894E0,2.4129126E1,1.4956126E0,1.2447028E0,1.2433485E0,2.2708202E1,3.7402062E0,1.7471304E0,2.0961071E1,1.8719254E1,2.2418175E0],"tree_param":{"num_deleted":"8","num_feature":"210","num_nodes":"69","size_leaf_vector":"0"}},{"base_weights":[-9.871955E-1,-1.4981073E0,8.923376E-1,-1.6175034E0,1.68795E-1,1.6546081E0,-1.0217128E0,-1.6893886E0,-1.0408558E0,1.6754317E0,-1.1465801E0,1.8026215E0,-8.9439803E-1,-1.8315527E0,1.799963E0,-1.4683002E0,-1.8074987E0,-2.0856962E-2,-1.7052176E0,1.8319657E0,3.2284287E-1,-1.7396703E0,1.7655395E0,1.82977E0,2.975216E-1,1.0398091E0,-1.7800745E0,-1.571016E0,-7.3478624E-2,-1.8212018E0,-1.4418633E0,-8.388397E-1,9.690553E-1,-1.779227E0,-3.3945006E-1,-1.819426E0,-1.0127382E0,-1.6242119E0,1.848283E0,6.682983E-1,-1.7659559E0,-1.8260624E0,-1.2854788E0,5.6205913E-2,-1.798151E0,-1.286174E0,1.1955813E0,1.8648123E0,-9.230449E-1,-1.8219625E0,-9.7187704E-1,-1.2760154E0,-1.810841E0,1.1721051E0,-5.8675826E-1,-1.793559E0,-8.1089276E-1,-1.1626308E0,-1.8028035E0,-1.8251289E0,-1.1275765E0,3.0215585E-1,1.8794808E0,1.0926714E0,-1.7698221E0,-1.0430436E0,-1.786894E0,-9.091907E-1,-1.8098911E0,-1.236529E0,-8.7368196E-1],"categories":[],"categories_nodes":[],"categories_segments":[],"categories_sizes":[],"default_left":[1,1,1,1,1,1,1,1,1,1,1,1,1,0,0,1,1,1,1,0,0,1,0,0,0,0,0,1,1,1,1,1,1,1,0,0,0,1,0,1,0,0,0,0,0,1,0,0,0,0,0,1,1,1,0,0,1,1,0,0,0,0,0,0,0,1,0,1,0,1,1],"id":4,"left_children":[1,3,5,7,9,11,13,15,17,19,21,23,25,-1,-1,27,29,31,33,-1,-1,35,-1,-1,-1,-1,-1,37,39,41,43,45,47,49,-1,-1,-1,51,-1,53,-1,-1,-1,-1,-1,55,-1,-1,-1,-1,-1,57,59,61,-1,-1,63,65,-1,-1,-1,-1,-1,-1,-1,67,-1,-1,-1,-1,-1],"loss_changes":[4.5808905E2,7.466217E1,1.4897624E2,1.4330688E1,5.004634E1,2.7695633E1,6.6851166E1,7.855713E0,2.6458763E1,2.4320755E0,2.3606247E1,2.7653046E0,7.1607714E0,0E0,0E0,1.5579834E1,7.508545E-1,1.2635203E1,2.3297806E0,0E0,0E0,4.6842957E-1,0E0,0E0,0E0,0E0,0E0,1.8736084E1,9.620689E0,2.7197266E-1,4.166424E0,7.9282036E0,1.2139723E1,5.9602356E-1,0E0,0E0,0E0,6.257965E0,0E0,3.4422662E0,0E0,0E0,0E0,0E0,0E0,1.5549288E0,0E0,0E0,0E0,0E0,0E0,1.8919182E0,4.2655945E-1,2.306498E0,0E0,0E0,7.172245E0,1.9960365E0,0E0,0E0,0E0,0E0,0E0,0E0,0E0,2.3783836E0,0E0,1.3946724E-1,0E0,0E0,0E0],"parents":[2147483647,0,0,1,1,2,2,3,3,4,4,5,5,6,6,7,7,8,8,9,9,10,10,11,11,12,12,15,15,16,16,17,17,18,18,21,21,27,27,28,28,29,29,30,30,31,31,32,32,33,33,37,37,39,39,45,45,51,51,52,52,53,53,56,56,57,57,65,65,67,67],"right_children":[2,4,6,8,10,12,14,16,18,20,22,24,26,-1,-1,28,30,32,34,-1,-1,36,-1,-1,-1,-1,-1,38,40,42,44,46,48,50,-1,-1,-1,52,-1,54,-1,-1,-1,-1,-1,56,-1,-1,-1,-1,-1,58,60,62,-1,-1,64,66,-1,-1,-1,-1,-1,-1,-1,68,-1,-1,-1,-1,-1],"split_conditions":[1.5E0,5E-1,1.5E0,5E-1,1.5E0,3E0,5E-1,5E-1,1.5E0,1.1E1,3.5E0,7.5E0,1E0,-4.578882E-2,4.4999074E-2,5E-1,1.5E0,1.5E0,2.5E0,4.5799144E-2,8.0710715E-3,1.5E0,4.4138487E-2,4.574425E-2,7.43804E-3,2.5995228E-2,-4.4501863E-2,5E-1,5E-1,5E0,1.5E0,1.5E0,1.5E0,2.5E0,-8.486251E-3,-4.548565E-2,-2.5318457E-2,5E-1,4.6207078E-2,5E-1,-4.41489E-2,-4.5651563E-2,-3.2136973E-2,1.4051478E-3,-4.4953775E-2,5E-1,2.9889533E-2,4.6620306E-2,-2.3076123E-2,-4.554906E-2,-2.4296926E-2,5E-1,5E0,5E-1,-1.4668956E-2,-4.4838976E-2,1E0,5E-1,-4.507009E-2,-4.5628224E-2,-2.8189411E-2,7.5538964E-3,4.6987023E-2,2.7316784E-2,-4.4245552E-2,2E0,-4.467235E-2,-2.2729767E-2,-4.524728E-2,-3.0913224E-2,-2.184205E-2],"split_indices":[0,4,24,11,92,148,15,27,62,51,61,86,97,0,0,2,53,11,16,0,0,54,0,0,0,0,0,24,102,137,89,27,73,14,0,0,0,5,0,10,0,0,0,0,0,20,0,0,0,0,0,22,141,22,0,0,3,10,0,0,0,0,0,0,0,1,0,1,0,2147483647,2147483647],"split_type":[0,0,0,0,0,0,0,0,0,0,0,0,0,0,0,0,0,0,0,0,0,0,0,0,0,0,0,0,0,0,0,0,0,0,0,0,0,0,0,0,0,0,0,0,0,0,0,0,0,0,0,0,0,0,0,0,0,0,0,0,0,0,0,0,0,0,0,0,0,0,0],"sum_hessian":[4.767999E2,3.74909E2,1.018909E2,3.4985287E2,2.5056137E1,7.288E1,2.9010902E1,3.1090265E2,3.8950226E1,1.1666221E1,1.3389915E1,6.890799E1,3.9720054E0,2.256864E1,6.442262E0,1.0872505E2,2.0217758E2,1.5403808E1,2.354642E1,1.0424376E1,1.2418453E0,1.1157758E1,2.2321582E0,6.7665886E1,1.2421046E0,1.2420721E0,2.7299333E0,1.0125586E2,7.4691916E0,1.9449048E2,7.6871033E0,8.442705E0,6.961102E0,2.2307337E1,1.2390822E0,9.919183E0,1.2385752E0,9.975639E1,1.4994669E0,5.2352195E0,2.233972E0,1.9250304E2,1.9874498E0,1.4931479E0,6.1939554E0,6.9510646E0,1.4916409E0,4.7254324E0,2.2356694E0,2.106655E1,1.2407866E0,3.508379E1,6.467261E1,3.7403655E0,1.4948542E0,3.2278345E0,3.7232301E0,2.9133804E1,5.949987E0,6.3184216E1,1.4883896E0,1.7414273E0,1.9989382E0,1.2426021E0,2.480628E0,2.4674171E1,4.459632E0,2.119343E1,3.4807415E0,1.7430193E0,1.945041E1],"tree_param":{"num_deleted":"2","num_feature":"210","num_nodes":"71","size_leaf_vector":"0"}},{"base_weights":[-9.5724815E-1,-1.46345E0,8.6511177E-1,-1.5713733E0,9.8038477E-1,1.3829921E0,-1.2653673E0,-1.5883559E0,1.362474E0,1.6913788E0,-5.480648E-1,1.6141269E0,-1.2261049E0,-1.794237E0,1.7373719E0,-1.1353414E0,-1.672478E0,9.6326816E-1,1.7765284E0,-1.780871E0,1.7152848E0,1.7069641E0,-1.7536578E0,-1.7682103E0,1.095418E0,-1.3176876E0,1.76559E0,-1.6843886E0,8.702961E-2,1.7931587E0,-1.8234518E-1,-1.1162884E0,-1.7904423E0,-1.7358664E0,-1.3493112E0,-1.7698016E0,1.6743668E0,-8.673827E-1,-1.6958153E0,-1.7462262E0,3.4547448E-1,-1.4539121E0,1.7377826E0,-7.5525737E-1,-1.7591861E0,-1.7773132E0,-9.752698E-1,-1.7759668E0,-1.5978636E0,-6.1867076E-1,-1.6688312E0,-6.458843E-1,-1.7138158E0,-1.7803249E0,-1.2535251E0,8.016053E-1,-1.746108E0,6.6584635E-1,-1.7481395E0,-8.1410456E-1,-1.7582699E0,-9.782286E-1,-6.200458E-1,-1.7919313E0,-2.6119676E-1,1.5083592E0,-1.0118852E0,9.2284165E-2,-1.676614E0,-1.7910874E0,-9.8048556E-1,1.0861042E0,1.8178517E0],"categories":[],"categories_nodes":[],"categories_segments":[],"categories_sizes":[],"default_left":[1,1,1,1,1,1,1,1,0,1,1,1,1,0,0,1,1,0,0,0,0,1,0,0,0,1,0,1,0,0,1,1,0,1,1,0,0,1,1,1,0,1,0,1,0,0,0,1,1,1,1,1,0,0,0,0,1,1,0,1,1,1,1,0,0,1,0,0,0,0,0,1,1],"id":5,"left_children":[1,3,5,7,9,11,13,15,-1,17,19,21,23,-1,-1,25,27,-1,-1,-1,-1,29,-1,-1,-1,31,-1,33,-1,-1,35,37,-1,39,41,-1,-1,43,45,47,-1,49,-1,51,-1,-1,-1,53,55,57,59,-1,-1,-1,-1,-1,63,65,-1,67,69,-1,-1,-1,-1,-1,-1,-1,-1,-1,-1,-1,-1],"loss_changes":[4.3495108E2,9.745874E1,1.1330172E2,1.7822693E1,1.7116257E1,4.9967667E1,3.2234962E1,1.3200623E1,0E0,4.932537E-1,1.4393526E1,2.4016373E1,8.717581E0,0E0,0E0,2.9506927E1,6.220764E0,0E0,0E0,0E0,0E0,1.2062668E1,0E0,0E0,0E0,4.7631683E0,0E0,4.8395996E0,0E0,0E0,1.0064018E1,5.1639977E0,0E0,5.550659E0,1.3046913E1,0E0,0E0,2.4631233E0,4.7014046E-1,8.3428955E-1,0E0,6.7858505E0,0E0,2.3255014E0,0E0,0E0,0E0,2.553711E-1,1.5545242E1,1.1741801E1,2.1857224E0,1.1983204E-1,0E0,0E0,0E0,0E0,2.7307434E0,5.5544596E0,0E0,2.4171038E0,5.261383E-1,0E0,0E0,0E0,0E0,1.40275E-1,0E0,0E0,0E0,0E0,0E0,0E0,0E0],"parents":[2147483647,0,0,1,1,2,2,3,3,4,4,5,5,6,6,7,7,9,9,10,10,11,11,12,12,15,15,16,16,21,21,25,25,27,27,30,30,31,31,33,33,34,34,37,37,38,38,39,39,41,41,43,43,47,47,48,48,49,49,50,50,51,51,56,56,57,57,59,59,60,60,65,65],"right_children":[2,4,6,8,10,12,14,16,-1,18,20,22,24,-1,-1,26,28,-1,-1,-1,-1,30,-1,-1,-1,32,-1,34,-1,-1,36,38,-1,40,42,-1,-1,44,46,48,-1,50,-1,52,-1,-1,-1,54,56,58,60,-1,-1,-1,-1,-1,64,66,-1,68,70,-1,-1,-1,-1,-1,-1,-1,-1,-1,-1,-1,-1],"split_conditions":[1.5E0,5E-1,1.5E0,5.5E0,1E0,2.5E0,5E-1,5E-1,3.406185E-2,5E-1,1.5E0,1.2E1,2.5E0,-4.4855926E-2,4.34343E-2,2E0,5E-1,2.4081705E-2,4.441321E-2,-4.4521775E-2,4.2882122E-2,3.5E0,-4.3841448E-2,-4.420526E-2,2.7385449E-2,5E-1,4.413975E-2,5E-1,2.1757404E-3,4.4828966E-2,3.5E0,2E0,-4.4761058E-2,5E-1,5E-1,-4.4245042E-2,4.1859172E-2,2E0,1.5E0,5E-1,8.636862E-3,5E-1,4.3444566E-2,5E-1,-4.3979656E-2,-4.443283E-2,-2.4381746E-2,5E-1,3.5E0,2.5E0,5E-1,-1.6147107E-2,-4.2845394E-2,-4.4508126E-2,-3.133813E-2,2.0040132E-2,2.5E0,1E0,-4.370349E-2,9.5E0,5E-1,-2.4455717E-2,-1.5501144E-2,-4.479828E-2,-6.5299193E-3,3.770898E-2,-2.529713E-2,2.3071042E-3,-4.1915353E-2,-4.4777185E-2,-2.451214E-2,2.7152603E-2,4.544629E-2],"split_indices":[0,19,132,4,60,47,15,5,0,2,160,22,4,0,0,2,63,0,0,0,0,49,0,0,0,22,0,11,0,0,0,25,0,4,8,0,0,1,77,2,0,34,0,10,0,0,0,30,25,17,113,1,0,0,0,0,58,75,0,2,83,2147483647,2147483647,0,0,90,0,0,0,0,0,2147483647,2147483647],"split_type":[0,0,0,0,0,0,0,0,0,0,0,0,0,0,0,0,0,0,0,0,0,0,0,0,0,0,0,0,0,0,0,0,0,0,0,0,0,0,0,0,0,0,0,0,0,0,0,0,0,0,0,0,0,0,0,0,0,0,0,0,0,0,0,0,0,0,0,0,0,0,0,0,0],"sum_hessian":[4.7126373E2,3.68832E2,1.0243175E2,3.5326688E2,1.55651E1,8.242969E1,2.0002062E1,3.512794E2,1.9875131E0,1.0616108E1,4.9489913E0,7.575669E1,6.673E0,1.7040909E1,2.9611533E0,5.524165E1,2.9603772E2,1.2404366E0,9.375672E0,3.21769E0,1.7313013E0,7.377238E1,1.984312E0,5.4290752E0,1.2439246E0,5.202599E1,3.215662E0,2.9405148E2,1.9862581E0,7.055843E1,3.2139463E0,3.671927E1,1.530672E1,2.5453004E2,3.952142E1,1.7351253E0,1.478821E0,2.586148E1,1.0857787E1,2.5328545E2,1.244607E0,3.827736E1,1.2440588E0,2.3137161E1,2.7243192E0,9.622737E0,1.2350501E0,2.1007669E2,4.320875E1,7.9129763E0,3.0364384E1,2.091779E1,2.2193723E0,2.0809996E2,1.976723E0,2.4885547E0,4.0720196E1,3.721572E0,4.1914043E0,2.9720478E0,2.7392336E1,1.243068E0,1.967472E1,3.9481163E1,1.2390342E0,2.484178E0,1.2373939E0,1.4927043E0,1.4793434E0,2.615834E1,1.2339959E0,1.2414039E0,1.2427741E0],"tree_param":{"num_deleted":"4","num_feature":"210","num_nodes":"73","size_leaf_vector":"0"}},{"base_weights":[-9.958235E-1,-1.4398608E0,7.665435E-1,-1.5129842E0,1.5273467E0,1.4861462E0,-5.4812306E-1,-1.585719E0,5.048407E-1,1.7399892E0,1.8448599E-1,1.5688354E0,-1.6830664E0,-1.4321096E0,9.8026496E-1,-1.6025718E0,1.6987336E0,1.7442594E0,-1.4073743E0,1.6397252E0,-1.6257877E0,-1.7609949E0,1.6711671E0,1.7707932E0,-1.4325619E0,-1.6123202E0,3.167985E-1,-1.7474476E0,-5.488172E-1,1.7156041E0,-1.1517087E0,-1.6934127E0,-9.674632E-1,-1.4528878E0,-1.7326558E0,1.7459437E0,5.564173E-1,-1.4737169E0,9.666982E-1,-1.7511028E0,-6.0536027E-1,1.7624453E0,1.0793715E0,-1.509133E0,-3.8331383E-1,-1.6854695E0,1.0994776E0,-1.3637834E0,-1.6972443E0,1.8249425E0,-1.7031633E0,-1.4601105E0,-2.8635E-1,-1.7117287E0,-9.086369E-1,-1.5301871E0,1.8317503E0,4.420379E-1,-1.7108821E0,-1.7260495E0,-1.0670898E0,-1.2310178E0,-1.7330357E0,1.5169537E0,-1.68658E0,-1.7392842E0,-1.1370492E0,-1.1548148E0,-1.7249116E0,1.0028256E0,1.8093352E0,-1.7558734E0,-1.2659475E0,-1.0828695E0,-1.7148776E0],"categories":[],"categories_nodes":[],"categories_segments":[],"categories_sizes":[],"default_left":[1,1,1,1,1,1,1,1,1,0,0,1,0,1,1,1,0,0,1,1,0,0,0,0,1,1,0,0,0,1,0,0,0,1,1,1,0,1,0,0,1,0,0,1,1,0,0,1,1,0,0,1,1,1,0,1,0,1,0,1,0,1,0,1,0,1,0,1,0,0,0,0,0,0,0],"id":6,"left_children":[1,3,5,7,9,11,13,15,17,-1,-1,19,-1,21,23,25,-1,-1,27,29,-1,-1,-1,-1,31,33,-1,-1,-1,35,-1,-1,-1,37,39,41,-1,43,-1,-1,45,-1,-1,47,49,-1,-1,51,53,-1,-1,55,57,59,-1,61,-1,63,-1,65,-1,67,-1,69,-1,71,-1,73,-1,-1,-1,-1,-1,-1,-1],"loss_changes":[3.6231857E2,8.04541E1,8.8265396E1,5.3047363E1,2.5213928E0,1.6057693E1,4.478877E1,1.9555054E1,3.0184124E1,0E0,0E0,1.3579788E1,0E0,2.1704575E1,2.3464727E1,6.5369263E0,0E0,0E0,1.3707018E0,1.2389465E1,0E0,0E0,0E0,0E0,2.0721006E-1,6.3653564E0,0E0,0E0,0E0,1.8750305E0,0E0,0E0,0E0,7.650238E0,3.97052E0,4.103546E-1,0E0,5.647522E0,0E0,0E0,6.2786283E0,0E0,0E0,3.6799622E0,1.4247187E1,0E0,0E0,8.386688E0,5.52063E-1,0E0,0E0,1.7470978E1,7.1200542E0,3.763275E-1,0E0,4.218094E0,0E0,1.0716114E1,0E0,2.639923E-1,0E0,9.242859E-1,0E0,2.8309536E-1,0E0,2.3114014E-1,0E0,8.685303E-1,0E0,0E0,0E0,0E0,0E0,0E0,0E0],"parents":[2147483647,0,0,1,1,2,2,3,3,4,4,5,5,6,6,7,7,8,8,11,11,13,13,14,14,15,15,18,18,19,19,24,24,25,25,29,29,33,33,34,34,35,35,37,37,40,40,43,43,44,44,47,47,48,48,51,51,52,52,53,53,55,55,57,57,59,59,61,61,63,63,65,65,67,67],"right_children":[2,4,6,8,10,12,14,16,18,-1,-1,20,-1,22,24,26,-1,-1,28,30,-1,-1,-1,-1,32,34,-1,-1,-1,36,-1,-1,-1,38,40,42,-1,44,-1,-1,46,-1,-1,48,50,-1,-1,52,54,-1,-1,56,58,60,-1,62,-1,64,-1,66,-1,68,-1,70,-1,72,-1,74,-1,-1,-1,-1,-1,-1,-1],"split_conditions":[5E-1,1.5E0,5E-1,5E-1,1E0,2.5E1,1.5E0,6E0,5E-1,4.349973E-2,4.6121497E-3,2.5E0,-4.207666E-2,5E-1,1.5E0,5E-1,4.246834E-2,4.3606486E-2,5E-1,4.5E0,-4.0644694E-2,-4.4024874E-2,4.177918E-2,4.426983E-2,2.5E0,5E-1,7.9199625E-3,-4.3686192E-2,-1.372043E-2,5E-1,-2.8792718E-2,-4.2335317E-2,-2.418658E-2,2.5E0,2.5E0,8.5E0,1.3910432E-2,2.5E0,2.4167456E-2,-4.377757E-2,1.5E0,4.4061136E-2,2.6984287E-2,5E-1,4E0,-4.213674E-2,2.748694E-2,5E-1,5.5E0,4.5623563E-2,-4.257908E-2,5E-1,5E-1,3E0,-2.2715924E-2,5E-1,4.5793757E-2,5E-1,-4.277205E-2,1.05E1,-2.6677245E-2,5E-1,-4.3325894E-2,5E-1,-4.21645E-2,1.4E1,-2.842623E-2,2E0,-4.312279E-2,2.5070641E-2,4.523338E-2,-4.3896835E-2,-3.1648688E-2,-2.7071739E-2,-4.287194E-2],"split_indices":[8,19,147,43,133,44,4,4,16,0,0,99,0,159,46,63,0,0,9,16,0,0,0,0,10,18,0,0,0,93,0,0,0,21,16,88,0,11,0,0,18,0,0,27,22,0,0,2,88,0,0,24,104,162,0,5,0,24,0,30,0,22,0,5,0,123,0,25,0,0,0,0,0,0,0],"split_type":[0,0,0,0,0,0,0,0,0,0,0,0,0,0,0,0,0,0,0,0,0,0,0,0,0,0,0,0,0,0,0,0,0,0,0,0,0,0,0,0,0,0,0,0,0,0,0,0,0,0,0,0,0,0,0,0,0,0,0,0,0,0,0,0,0,0,0,0,0,0,0,0,0,0,0],"sum_hessian":[4.6275244E2,3.6963846E2,9.3113976E1,3.6079605E2,8.842391E0,6.0167393E1,3.294658E1,3.4826392E2,1.2532153E1,7.6080756E0,1.234315E0,5.8686676E1,1.4807196E0,2.0877682E1,1.2068899E1,3.46537E2,1.7269107E0,7.609059E0,4.9230943E0,5.746028E1,1.2263923E0,1.8916197E1,1.9614851E0,9.110562E0,2.9583364E0,3.4480176E2,1.7352322E0,3.4521635E0,1.4709306E0,5.5977207E1,1.4830735E0,1.7261353E0,1.2322011E0,1.4887067E2,1.959311E2,5.450015E1,1.477058E0,1.4763881E2,1.2318573E0,1.9272206E2,3.2090461E0,5.30231E1,1.4770501E0,1.4295718E2,4.6816278E0,1.9651505E0,1.2438955E0,8.111013E1,6.184705E1,1.7370609E0,2.944567E0,7.442105E1,6.6890755E0,6.0616642E1,1.2304106E0,7.292221E1,1.4988399E0,4.4716253E0,2.21745E0,5.913519E1,1.4814521E0,2.9751041E1,4.317117E1,2.9903066E0,1.4813186E0,5.7644634E1,1.4905556E0,2.6063515E1,3.6875277E0,1.2446612E0,1.7456455E0,5.543096E1,2.2136707E0,2.3356503E1,2.7070107E0],"tree_param":{"num_deleted":"0","num_feature":"210","num_nodes":"75","size_leaf_vector":"0"}},{"base_weights":[-9.414735E-1,-1.3911492E0,8.1767535E-1,-1.4918209E0,7.7786505E-1,1.537566E0,-9.3384683E-1,-1.5802591E0,-9.1863513E-1,1.2756363E0,-1.4551957E0,1.6866848E0,-1.0148228E0,-1.7260381E0,1.7042159E0,-1.2307286E0,-1.6497762E0,1.3863948E-1,-1.6026297E0,-1.000875E0,1.7271917E0,-1.0079147E0,-1.7020724E0,1.7292676E0,-8.15931E-2,-1.6789864E0,3.3727595E-1,-1.1044362E0,-1.5837587E0,-1.6658406E0,-1.0282024E0,9.1090566E-1,-1.104955E0,-1.6902723E0,-5.184668E-1,-9.4239885E-1,-1.711869E0,-1.7121744E0,-3.0939177E-1,-1.6730056E0,-4.333025E-1,1.7382817E0,-1.6902145E0,1.7916037E0,-1.3905066E0,-1.4169902E0,3.7265247E-1,-1.724561E0,-9.0627754E-1,-8.4520084E-1,-1.7136045E0,-1.5598752E0,-1.7180687E0,-8.920983E-1,-1.6452895E0,-1.7071376E0,-1.0274407E0,-7.3810893E-1,-1.6726639E0,-1.6086175E0,1.1129953E0,-1.7233242E0,-1.247727E0,-1.6150652E-1,-1.6913358E0,-1.180151E0,-6.9869727E-1,-1.3862225E0,-1.7221432E0,-1.7144917E0,-8.2700914E-1,1.04413055E-1,-1.7009864E0,9.7544837E-1,-1.615963E0],"categories":[],"categories_nodes":[],"categories_segments":[],"categories_sizes":[],"default_left":[1,1,1,1,1,1,1,1,1,1,1,1,1,0,0,1,1,1,1,0,0,0,0,0,0,0,0,1,1,1,1,1,1,1,0,1,0,0,0,1,0,0,0,0,1,1,0,0,0,1,0,1,1,0,0,0,1,1,0,1,0,0,0,0,0,0,0,1,0,0,1,1,0,0,0],"id":7,"left_children":[1,3,5,7,9,11,13,15,17,19,21,23,25,-1,-1,27,29,31,33,-1,-1,-1,-1,-1,-1,-1,-1,35,37,39,41,43,45,47,-1,49,-1,-1,-1,51,-1,-1,-1,-1,53,55,-1,-1,-1,57,-1,59,61,-1,-1,-1,63,65,-1,67,-1,-1,-1,-1,-1,-1,-1,69,-1,-1,71,73,-1,-1,-1],"loss_changes":[3.6818094E2,8.104053E1,1.19661804E2,1.7809753E1,1.853053E1,2.5753845E1,5.8125847E1,7.249695E0,3.443363E1,1.4100681E1,1.6578913E-1,4.798752E0,3.4444778E0,0E0,0E0,2.1112213E0,2.38031E0,1.814029E1,2.6584396E0,0E0,0E0,0E0,0E0,0E0,0E0,0E0,0E0,3.5883408E0,2.120247E0,2.1259155E0,1.2563105E1,2.3846907E1,3.391446E0,5.613251E-1,0E0,2.126154E0,0E0,0E0,0E0,9.935913E-1,0E0,0E0,0E0,0E0,2.6955605E-1,5.026989E-1,0E0,0E0,0E0,2.2782135E0,0E0,9.504593E0,2.2003174E-1,0E0,0E0,0E0,1.5893781E0,3.387251E-1,0E0,1.5371552E0,0E0,0E0,0E0,0E0,0E0,0E0,0E0,4.3160706E0,0E0,0E0,7.4870157E0,6.9548626E0,0E0,0E0,0E0],"parents":[2147483647,0,0,1,1,2,2,3,3,4,4,5,5,6,6,7,7,8,8,9,9,10,10,11,11,12,12,15,15,16,16,17,17,18,18,27,27,28,28,29,29,30,30,31,31,32,32,33,33,35,35,39,39,44,44,45,45,49,49,51,51,52,52,56,56,57,57,59,59,67,67,70,70,71,71],"right_children":[2,4,6,8,10,12,14,16,18,20,22,24,26,-1,-1,28,30,32,34,-1,-1,-1,-1,-1,-1,-1,-1,36,38,40,42,44,46,48,-1,50,-1,-1,-1,52,-1,-1,-1,-1,54,56,-1,-1,-1,58,-1,60,62,-1,-1,-1,64,66,-1,68,-1,-1,-1,-1,-1,-1,-1,70,-1,-1,72,74,-1,-1,-1],"split_conditions":[1.5E0,5E-1,1.5E0,5E-1,5.5E0,3E0,1E0,5E-1,1.5E0,5E-1,6.5E0,6.5E0,4.5E0,-4.3150954E-2,4.2605396E-2,5E-1,5E-1,5E-1,5E-1,-2.5021875E-2,4.317979E-2,-2.5197867E-2,-4.255181E-2,4.3231692E-2,-2.0398276E-3,-4.197466E-2,8.431899E-3,4.5E0,5E-1,5E-1,3E0,5E-1,5E-1,3.5E0,-1.296167E-2,2E0,-4.2796727E-2,-4.280436E-2,-7.734794E-3,5E-1,-1.0832562E-2,4.3457042E-2,-4.2255364E-2,4.4790093E-2,5.5E0,5E-1,9.316312E-3,-4.3114025E-2,-2.2656938E-2,5E-1,-4.2840112E-2,5E-1,5E0,-2.2302458E-2,-4.1132238E-2,-4.267844E-2,2.5E0,5E-1,-4.18166E-2,5E-1,2.7824882E-2,-4.3083105E-2,-3.1193176E-2,-4.037663E-3,-4.2283397E-2,-2.9503776E-2,-1.7467432E-2,5E-1,-4.305358E-2,-4.2862292E-2,5E-1,5E-1,-4.2524662E-2,2.438621E-2,-4.0399075E-2],"split_indices":[0,19,24,11,103,148,84,5,62,23,6,158,17,0,0,22,60,17,83,0,0,0,0,0,0,0,0,25,20,83,6,126,184,187,0,1,0,0,0,29,0,0,0,0,5,32,0,0,0,10,0,17,137,0,0,0,5,1,0,102,0,0,0,0,0,0,0,22,0,0,32,62,0,0,0],"split_type":[0,0,0,0,0,0,0,0,0,0,0,0,0,0,0,0,0,0,0,0,0,0,0,0,0,0,0,0,0,0,0,0,0,0,0,0,0,0,0,0,0,0,0,0,0,0,0,0,0,0,0,0,0,0,0,0,0,0,0,0,0,0,0,0,0,0,0,0,0,0,0,0,0,0,0],"sum_hessian":[4.6519153E2,3.705038E2,9.4687706E1,3.5409998E2,1.640384E1,6.711506E1,2.7572647E1,3.0661588E2,4.748412E1,1.3448836E1,2.9550035E0,6.344246E1,3.6725981E0,2.123154E1,6.3411074E0,5.117581E1,2.5544005E2,1.8683737E1,2.8800383E1,2.2059436E0,1.1242892E1,1.2317094E0,1.7232941E0,6.1952747E1,1.4897099E0,2.4466193E0,1.2259787E0,3.7996017E1,1.3179795E1,2.4884082E2,6.599241E0,1.1542594E1,7.1411433E0,2.6594599E1,2.2057848E0,3.0196121E1,7.799896E0,1.19420595E1,1.2377355E0,2.4736711E2,1.473703E0,1.2428627E0,5.356378E0,8.364025E0,3.1785693E0,5.8994284E0,1.2417153E0,2.5365255E1,1.2293425E0,2.7002487E1,3.1936336E0,7.147986E1,1.7588725E2,1.2274879E0,1.9510814E0,3.1872451E0,2.712183E0,2.4075758E1,2.9267297E0,7.02388E1,1.2410543E0,1.7368022E2,2.207039E0,1.2309513E0,1.4812318E0,1.7338986E0,2.234186E1,2.4183918E1,4.6054886E1,1.5108401E1,9.075517E0,4.436E0,4.6395173E0,2.9737003E0,1.4622996E0],"tree_param":{"num_deleted":"0","num_feature":"210","num_nodes":"75","size_leaf_vector":"0"}},{"base_weights":[-9.2057955E-1,-1.3774372E0,8.5723823E-1,-1.4918398E0,4.0976912E-1,1.4444942E0,-6.908696E-1,-9.9368525E-1,-1.5872484E0,1.7150688E0,-7.619495E-1,1.639214E0,-1.484328E0,-1.3608456E0,1.679865E0,-1.1758534E0,1.6995268E0,-1.6021122E0,2.8157014E-1,-1.6995612E0,7.505321E-1,1.6819533E0,-4.5896548E-1,-1.6561537E0,-9.825053E-1,-1.6023245E0,1.6001269E0,-1.003507E0,-1.6804209E0,-1.6505718E0,-1.2307707E0,1.6763096E0,-1.5982109E0,1.6963519E0,8.9190185E-1,-2.7532348E-1,-1.6938999E0,-1.0520027E0,4.1863927E-1,-1.544911E0,-1.687938E0,-1.53967E0,3.4380573E-1,-1.1110831E0,-1.171293E-1,-1.5696832E0,-4.262501E-1,-5.583682E-1,-1.6655904E0,1.4991698E0,-1.6581554E0,-1.0282977E0,-1.6563118E0,-1.5941552E0,-8.359292E-1,3.4174275E-1,-1.5855415E0,-1.3447542E0,-1.7028873E0,1.7397691E0,9.6328497E-1,-9.932296E-1,-1.6178898E0,-1.4689457E0,-1.690556E0,-1.0214845E0,-1.5837762E0,-9.555958E-1,-1.6002989E0,-1.6248269E0,8.526599E-1,-9.189542E-1,-1.6187886E0,-8.795885E-1,-1.6037254E0,-8.3781356E-1,-1.5788845E0,-8.973301E-1,-2.4082728E-1],"categories":[],"categories_nodes":[],"categories_segments":[],"categories_sizes":[],"default_left":[1,1,1,1,1,1,1,1,1,0,1,1,1,1,0,1,0,1,0,0,1,1,0,0,0,1,0,1,0,1,1,0,0,0,0,0,0,1,0,1,0,1,1,1,0,1,0,1,1,1,0,1,0,1,0,0,0,1,1,0,0,1,0,1,0,1,1,1,0,0,0,1,0,1,0,1,0,0,0],"id":8,"left_children":[1,3,5,7,9,11,13,15,17,-1,19,21,23,25,-1,27,-1,29,-1,-1,31,33,-1,-1,-1,35,-1,37,-1,39,41,-1,-1,-1,-1,-1,-1,43,-1,45,-1,47,49,51,-1,53,-1,55,-1,59,-1,61,-1,63,-1,-1,-1,-1,-1,-1,-1,67,-1,69,-1,-1,-1,71,-1,-1,-1,73,-1,75,-1,77,-1,-1,-1],"loss_changes":[3.680278E2,7.375006E1,8.434733E1,1.5942261E1,3.3412624E1,3.8576065E1,4.0814713E1,2.7044949E1,7.9375E0,0E0,1.6487572E1,5.7332153E0,2.0310593E-1,1.4540707E1,0E0,4.2932587E0,0E0,4.869751E0,0E0,0E0,1.001834E1,5.520935E-1,0E0,0E0,0E0,2.2040825E0,0E0,2.6988907E0,0E0,7.225952E-1,1.6071712E1,0E0,0E0,0E0,0E0,0E0,0E0,2.0445862E0,0E0,1.7689819E0,0E0,3.311386E0,1.2931048E1,1.4106941E0,0E0,1.0298767E0,0E0,3.0902205E0,6.259155E-2,2.8744316E-1,0E0,4.7351074E-1,0E0,5.069885E-1,0E0,0E0,0E0,7.104397E-2,0E0,0E0,0E0,5.144291E-1,0E0,1.0265648E1,0E0,0E0,0E0,5.256634E-1,0E0,0E0,0E0,5.7414436E-1,0E0,6.0712814E-1,0E0,8.3457565E-1,0E0,0E0,0E0],"parents":[2147483647,0,0,1,1,2,2,3,3,4,4,5,5,6,6,7,7,8,8,10,10,11,11,12,12,13,13,15,15,17,17,20,20,21,21,25,25,27,27,29,29,30,30,37,37,39,39,41,41,42,42,43,43,45,45,47,47,48,48,49,49,51,51,53,53,57,57,61,61,63,63,67,67,71,71,73,73,75,75],"right_children":[2,4,6,8,10,12,14,16,18,-1,20,22,24,26,-1,28,-1,30,-1,-1,32,34,-1,-1,-1,36,-1,38,-1,40,42,-1,-1,-1,-1,-1,-1,44,-1,46,-1,48,50,52,-1,54,-1,56,-1,60,-1,62,-1,64,-1,-1,-1,-1,-1,-1,-1,68,-1,70,-1,-1,-1,72,-1,-1,-1,74,-1,76,-1,78,-1,-1,-1],"split_conditions":[1.5E0,5E-1,1.5E0,5E-1,3.5E0,3E0,5E-1,1.5E0,5E-1,4.287672E-2,1.5E0,1.3E1,3.5E0,1.35E1,4.1996624E-2,5E-1,4.248817E-2,5E-1,7.0392536E-3,-4.2489033E-2,4.5E0,3.5E0,-1.1474137E-2,-4.140384E-2,-2.4562633E-2,5E-1,4.0003173E-2,1.5E0,-4.2010523E-2,5E-1,5E-1,4.190774E-2,-3.9955273E-2,4.2408798E-2,2.2297546E-2,-6.883087E-3,-4.23475E-2,5E-1,1.0465982E-2,2.5E0,-4.219845E-2,5E-1,3E0,5E-1,-2.9282325E-3,2.5E0,-1.06562525E-2,2E0,-4.163976E-2,1.5E0,-4.1453887E-2,1E0,-4.1407794E-2,3.5E0,-2.089823E-2,8.543569E-3,-3.9638538E-2,-3.3618856E-2,-4.257218E-2,4.349423E-2,2.4082124E-2,5E-1,-4.0447246E-2,2E0,-4.2263903E-2,-2.5537113E-2,-3.9594408E-2,1E0,-4.0007472E-2,-4.0620673E-2,2.1316497E-2,5E-1,-4.0469717E-2,5E-1,-4.0093135E-2,2E0,-3.9472114E-2,-2.2433253E-2,-6.020682E-3],"split_indices":[0,4,24,5,17,148,68,11,63,0,8,88,78,26,0,27,0,11,0,0,13,138,0,0,0,42,0,20,0,3,160,0,0,0,0,0,0,24,0,103,0,62,20,18,0,57,0,17,3,34,0,17,0,25,0,0,0,2147483647,2147483647,0,0,62,0,25,0,2147483647,2147483647,102,0,0,0,41,0,184,0,25,0,0,0],"split_type":[0,0,0,0,0,0,0,0,0,0,0,0,0,0,0,0,0,0,0,0,0,0,0,0,0,0,0,0,0,0,0,0,0,0,0,0,0,0,0,0,0,0,0,0,0,0,0,0,0,0,0,0,0,0,0,0,0,0,0,0,0,0,0,0,0,0,0,0,0,0,0,0,0,0,0,0,0,0,0],"sum_hessian":[4.528738E2,3.603061E2,9.2567726E1,3.3864526E2,2.1660812E1,6.711511E1,2.5452614E1,5.4616985E1,2.840283E2,1.0224407E1,1.1436406E1,6.297248E1,4.1426296E0,1.9877716E1,5.5748973E0,5.1209526E1,3.4074588E0,2.8180124E2,2.2270505E0,7.05224E0,4.3841662E0,6.17348E1,1.2376827E0,2.9146252E0,1.2280047E0,1.8421274E1,1.4564421E0,3.839406E1,1.2815469E1,2.4896692E2,3.283432E1,3.1652033E0,1.2189629E0,6.051717E1,1.2176263E0,1.2150388E0,1.7206236E1,3.715315E1,1.2409072E0,6.614962E1,1.8281729E2,2.7451183E1,5.3831363E0,3.4927044E1,2.2261062E0,6.467707E1,1.4725533E0,3.1837273E0,2.4267456E1,3.429203E0,1.9539335E0,3.0573479E1,4.3535647E0,6.2476116E1,2.200952E0,1.7323768E0,1.4513503E0,2.9131837E0,2.1354273E1,2.2115965E0,1.2176063E0,2.9110493E1,1.4629853E0,2.7883572E1,3.4592545E1,1.4625252E0,1.4506584E0,2.7653585E1,1.4569077E0,2.6157288E1,1.7262847E0,2.6431786E1,1.2218001E0,2.5210924E1,1.2208607E0,2.3997177E1,1.2137487E0,2.1775915E1,2.2212603E0],"tree_param":{"num_deleted":"4","num_feature":"210","num_nodes":"79","size_leaf_vector":"0"}},{"base_weights":[-9.047465E-1,-1.3651018E0,8.354656E-1,-1.4670898E0,8.360785E-1,1.2254318E0,-1.4280599E0,-1.5086468E0,-3.4021688E-1,-6.5622795E-1,1.4470359E0,1.4918432E0,-1.0010452E0,-1.6703612E0,1.025036E0,-1.5211052E0,1.6969227E0,1.2487316E0,-1.6535974E0,1.6021885E0,-1.4861162E0,1.6629753E0,-3.4013805E-1,1.6103718E0,-1.3390127E0,-1.6541305E0,1.6212871E0,-1.3625344E0,-1.6522655E0,1.6655874E0,-2.565848E-1,-1.7309427E0,-9.434255E-1,1.6571773E0,-9.6806127E-1,-9.2284065E-1,-1.5696214E0,-1.4215444E0,-8.4388286E-1,-1.6659962E0,-7.083032E-1,1.6698388E0,8.8011295E-1,-1.4546145E0,7.748914E-2,6.476897E-2,-1.6537133E0,-1.6061157E0,4.0964133E-1,-1.3441855E0,-1.6463392E0,1.6826384E0,-1.5629574E0,9.1685396E-1,-1.639534E0,-1.3832933E0,1.1900092E0,-1.6648214E0,-9.8958015E-1,1.539233E0,-9.4379354E-1,-1.299507E0,-1.666975E0,1.7896483E0,9.3782365E-1,-1.1193419E0,-1.5349679E0,-1.0595549E0,-1.6282514E0,-1.6313444E0,-6.04364E-1,-1.1053526E0,-3.0588138E-1,-1.6655064E0,-1.324421E0,5.613078E-1,-1.5651453E0,-1.0471926E0,-1.6241648E0,-9.9048007E-1,-1.5993105E0,-9.3902546E-1,-1.6344353E0,-1.2871904E0,-8.9456135E-1],"categories":[],"categories_nodes":[],"categories_segments":[],"categories_sizes":[],"default_left":[1,1,1,1,1,1,1,1,1,1,1,1,1,0,0,1,0,1,0,0,1,0,0,1,1,0,0,1,1,0,0,0,0,1,0,1,1,1,1,0,1,0,0,1,1,1,0,0,0,1,1,0,0,1,0,1,0,0,0,1,0,1,0,0,0,1,1,1,0,1,1,1,0,1,1,0,0,1,0,1,0,1,0,0,0],"id":9,"left_children":[1,3,5,7,9,11,13,15,17,19,21,23,25,-1,-1,27,-1,29,-1,-1,31,-1,-1,33,-1,-1,-1,37,39,-1,-1,-1,-1,41,-1,-1,-1,43,45,-1,47,-1,-1,49,51,53,-1,-1,-1,55,57,-1,-1,59,-1,61,-1,-1,-1,63,-1,65,-1,-1,-1,67,69,71,-1,-1,75,77,-1,-1,-1,-1,-1,79,-1,81,-1,83,-1,-1,-1],"loss_changes":[3.659833E2,8.120911E1,8.456349E1,1.6116089E1,1.4735668E1,4.8555016E1,8.549892E0,1.3554016E1,2.6100805E1,9.109518E0,4.465601E0,2.468486E1,1.5306617E1,0E0,0E0,6.673462E0,0E0,3.6018858E0,0E0,0E0,3.034916E-1,0E0,0E0,8.61322E0,1.416564E-1,0E0,0E0,4.493164E0,2.2288513E0,0E0,0E0,0E0,0E0,5.3022766E-1,0E0,0E0,0E0,6.7127686E0,1.1521927E1,0E0,2.8460114E0,0E0,0E0,2.5791626E0,8.196332E0,1.09956045E1,0E0,0E0,0E0,8.536606E0,4.1664124E-1,0E0,0E0,5.9852176E0,0E0,1.761795E0,0E0,0E0,0E0,4.0700626E-1,0E0,2.5733795E0,0E0,0E0,0E0,9.5415115E-1,2.3931122E0,1.1198425E0,0E0,4.2762756E-2,3.1856747E0,7.795105E-1,0E0,0E0,0E0,0E0,0E0,7.364712E-1,0E0,7.139816E-1,0E0,2.6379204E-1,0E0,0E0,0E0],"parents":[2147483647,0,0,1,1,2,2,3,3,4,4,5,5,6,6,7,7,8,8,9,9,10,10,11,11,12,12,15,15,17,17,20,20,23,23,24,24,27,27,28,28,33,33,37,37,38,38,40,40,43,43,44,44,45,45,49,49,50,50,53,53,55,55,59,59,61,61,65,65,66,66,67,67,69,69,70,70,71,71,77,77,79,79,81,81],"right_children":[2,4,6,8,10,12,14,16,18,20,22,24,26,-1,-1,28,-1,30,-1,-1,32,-1,-1,34,-1,-1,-1,38,40,-1,-1,-1,-1,42,-1,-1,-1,44,46,-1,48,-1,-1,50,52,54,-1,-1,-1,56,58,-1,-1,60,-1,62,-1,-1,-1,64,-1,66,-1,-1,-1,68,70,72,-1,-1,76,78,-1,-1,-1,-1,-1,80,-1,82,-1,84,-1,-1,-1],"split_conditions":[1.5E0,5E-1,2.5E0,5E-1,5E-1,5E-1,5E-1,5E-1,3.5E0,5E-1,3.5E0,5E-1,4E0,-4.175903E-2,2.56259E-2,5E-1,4.2423066E-2,2.5E0,-4.1339934E-2,4.0054712E-2,1.5E0,4.1574385E-2,-8.503451E-3,1.05E1,-3.347532E-2,-4.1353263E-2,4.053218E-2,2.5E0,4.5E0,4.1639686E-2,-6.4146197E-3,-4.327357E-2,-2.3585638E-2,7.5E0,-2.4201533E-2,-2.3071017E-2,-3.9240535E-2,2.5E0,1.5E0,-4.1649904E-2,1.5E0,4.1745972E-2,2.2002824E-2,5E-1,2E0,1E0,-4.1342836E-2,-4.0152892E-2,1.02410335E-2,5E-1,1.5E0,4.206596E-2,-3.9073937E-2,5E-1,-4.0988352E-2,1.5E0,2.9750232E-2,-4.1620534E-2,-2.4739504E-2,5E-1,-2.359484E-2,3.5E0,-4.1674376E-2,4.474121E-2,2.3445591E-2,5E-1,1.95E1,5E-1,-4.0706288E-2,-4.078361E-2,2.5E0,5E-1,-7.6470347E-3,-4.163766E-2,-3.3110525E-2,1.40326945E-2,-3.912863E-2,5E-1,-4.0604122E-2,5E-1,-3.9982762E-2,5E-1,-4.0860884E-2,-3.217976E-2,-2.2364033E-2],"split_indices":[0,19,47,43,37,93,185,60,144,78,197,163,4,0,0,18,0,23,0,0,54,0,0,22,2,0,0,2,53,0,0,0,0,86,0,2147483647,2147483647,11,62,0,10,0,0,77,17,86,0,0,0,103,2,0,0,34,0,1,0,0,0,10,0,25,0,0,0,62,25,32,0,11,32,22,0,2147483647,2147483647,0,0,46,0,113,0,1,0,0,0],"split_type":[0,0,0,0,0,0,0,0,0,0,0,0,0,0,0,0,0,0,0,0,0,0,0,0,0,0,0,0,0,0,0,0,0,0,0,0,0,0,0,0,0,0,0,0,0,0,0,0,0,0,0,0,0,0,0,0,0,0,0,0,0,0,0,0,0,0,0,0,0,0,0,0,0,0,0,0,0,0,0,0,0,0,0,0,0],"sum_hessian":[4.5659943E2,3.6109656E2,9.550286E1,3.451385E2,1.5958064E1,8.150656E1,1.3996304E1,3.328304E2,1.2308064E1,4.633356E0,1.1324708E1,7.282554E1,8.681022E0,1.2767154E1,1.2291499E0,3.3159424E2,1.236179E0,5.571952E0,6.736113E0,1.2200667E0,3.4132893E0,1.0110084E1,1.2146242E0,6.994024E1,2.885299E0,6.9796734E0,1.7013487E0,1.5062723E2,1.8096701E2,4.3552413E0,1.2167108E0,2.2012665E0,1.2120228E0,6.872836E1,1.2118778E0,1.207086E0,1.6782131E0,1.350839E2,1.55433445E1,1.7829706E2,2.669957E0,6.751341E1,1.2149498E0,1.3217102E2,2.9128587E0,7.3681183E0,8.175226E0,1.4565479E0,1.2134091E0,8.437439E1,4.7796635E1,1.4709687E0,1.44189E0,4.94301E0,2.4251084E0,8.313683E1,1.237559E0,4.6339092E1,1.4575442E0,3.7169724E0,1.2260376E0,6.461166E1,1.8525179E1,2.484781E0,1.2321913E0,3.692983E1,2.7681826E1,3.33232E1,3.6066267E0,2.5015804E1,2.666022E0,3.137029E1,1.9529105E0,2.2111992E1,2.903812E0,1.2233571E0,1.4426649E0,2.8479511E1,2.890779E0,2.6080019E1,2.3994923E0,2.4377945E1,1.7020748E0,2.4442163E0,2.193373E1],"tree_param":{"num_deleted":"4","num_feature":"210","num_nodes":"85","size_leaf_vector":"0"}},{"base_weights":[-8.830161E-1,-1.3164585E0,7.644875E-1,-1.4076941E0,7.389644E-1,1.2830359E0,-1.1751689E0,-1.4930991E0,-8.685892E-1,-7.467947E-1,1.4746754E0,1.5110592E0,-1.2254231E0,-1.6421406E0,1.5912552E0,-1.2794269E0,-1.615184E0,1.5337768E-1,-1.4564683E0,-1.49177E0,1.5691634E0,1.6306192E0,2.6517144E-1,1.5782872E0,-5.184343E-1,-1.6201494E0,3.9803478E-1,-1.3576598E0,2.2756748E-1,-1.6282268E0,-1.193614E0,6.955155E-1,-9.347474E-1,2.5357288E-1,-1.5583527E0,-1.7099022E0,-1.0329121E0,1.6421067E0,-1.1842565E-1,-1.2378712E0,-1.6375512E0,1.2544676E0,-1.5886506E0,-1.6330042E0,-1.0500911E0,1.141462E-1,-1.6070968E0,-1.1856651E0,1.6315252E0,-1.6053828E0,3.944391E-1,-1.6149117E0,-4.734354E-1,-1.7058364E0,1.5177263E0,-1.0888575E0,-1.632392E0,1.6716325E0,9.602346E-1,-1.6380198E0,-1.1063349E0,1.73539E0,1.1890048E0,-1.6484874E0,-8.283086E-1,-9.978368E-1,-1.5306997E0,-9.073406E-1,-1.6139599E0,-1.6245319E0,-9.7560376E-1,-8.221296E-1,-1.604599E0,-7.384137E-1,-1.4200865E0,-6.827548E-1,-1.606327E0,-1.5860486E0,-1.0419607E0,-7.2839844E-1,1.728594E-1,-6.7883253E-1,-1.5351343E0,-1.2944825E0,-6.039656E-1],"categories":[],"categories_nodes":[],"categories_segments":[],"categories_sizes":[],"default_left":[1,1,1,1,1,1,1,1,1,1,1,1,1,0,0,1,1,1,1,1,0,0,0,1,0,0,0,1,1,1,1,1,1,0,1,0,0,0,1,1,0,1,0,1,0,0,0,0,1,0,0,1,0,0,0,1,0,0,0,0,0,0,0,0,0,1,1,1,0,0,0,1,0,1,1,1,0,1,1,1,0,1,0,0,0],"id":10,"left_children":[1,3,5,7,9,11,13,15,17,19,21,23,25,-1,-1,27,29,31,33,35,-1,-1,-1,37,-1,-1,-1,39,41,43,45,47,49,-1,51,-1,-1,-1,53,55,-1,57,-1,59,-1,-1,-1,-1,61,-1,-1,63,-1,-1,-1,65,-1,-1,-1,-1,-1,-1,-1,-1,-1,67,69,71,-1,-1,-1,73,-1,75,-1,79,-1,-1,-1,81,-1,83,-1,-1,-1],"loss_changes":[3.2659137E2,6.799127E1,9.599943E1,1.5831299E1,1.7000023E1,4.3222084E1,2.629758E1,7.5960083E0,2.8648129E1,9.177597E0,1.9122944E0,9.498306E0,4.1175823E0,0E0,0E0,1.2910141E1,8.502197E-1,1.0382579E1,5.311043E0,2.2107792E-1,0E0,0E0,0E0,7.2557983E0,0E0,0E0,0E0,3.2796783E0,1.0414066E1,3.3670044E-1,3.3037157E0,2.0849556E1,5.285927E0,0E0,1.6766052E0,0E0,0E0,0E0,6.793028E0,4.1223907E0,0E0,2.7578497E-1,0E0,3.003235E-1,0E0,0E0,0E0,0E0,1.5563965E-1,0E0,0E0,5.7951355E-1,0E0,0E0,0E0,1.9945297E0,0E0,0E0,0E0,0E0,0E0,0E0,0E0,0E0,0E0,2.3380508E0,3.067875E-1,2.1900444E0,0E0,0E0,0E0,1.6487026E0,0E0,1.384779E0,9.7914696E-2,1.154747E0,0E0,0E0,0E0,1.0067806E0,0E0,1.1365738E0,0E0,0E0,0E0],"parents":[2147483647,0,0,1,1,2,2,3,3,4,4,5,5,6,6,7,7,8,8,9,9,10,10,11,11,12,12,15,15,16,16,17,17,18,18,19,19,23,23,27,27,28,28,29,29,30,30,31,31,32,32,34,34,38,38,39,39,41,41,43,43,48,48,51,51,55,55,65,65,66,66,67,67,71,71,73,73,74,74,75,75,79,79,81,81],"right_children":[2,4,6,8,10,12,14,16,18,20,22,24,26,-1,-1,28,30,32,34,36,-1,-1,-1,38,-1,-1,-1,40,42,44,46,48,50,-1,52,-1,-1,-1,54,56,-1,58,-1,60,-1,-1,-1,-1,62,-1,-1,64,-1,-1,-1,66,-1,-1,-1,-1,-1,-1,-1,-1,-1,68,70,72,-1,-1,-1,74,-1,76,-1,80,-1,-1,-1,82,-1,84,-1,-1,-1],"split_conditions":[1.5E0,5E-1,1.5E0,5E-1,5E-1,2.5E0,1E0,5E-1,5E-1,1.5E0,1.65E1,3E0,4.5E0,-4.1053515E-2,3.978138E-2,2E0,5E-1,3.5E0,5E-1,5.5E0,3.9229088E-2,4.076548E-2,6.629286E-3,3.5E0,-1.2960858E-2,-4.0503737E-2,9.95087E-3,1.5E0,1E0,4.5E0,2.5E0,5E-1,1.1E1,6.3393223E-3,5E-1,-4.2747553E-2,-2.5822803E-2,4.1052666E-2,3.5E0,5E-1,-4.093878E-2,3.5E0,-3.9716266E-2,5E0,-2.6252279E-2,2.853655E-3,-4.017742E-2,-2.9641628E-2,5E-1,-4.013457E-2,9.8609775E-3,7.5E0,-1.1835885E-2,-4.2645913E-2,3.794316E-2,5E-1,-4.0809803E-2,4.1790813E-2,2.4005866E-2,-4.0950496E-2,-2.7658373E-2,4.338475E-2,2.972512E-2,-4.1212186E-2,-2.0707715E-2,1.5E0,2.5E0,5E-1,-4.0349E-2,-4.0613297E-2,-2.4390094E-2,5E-1,-4.0114976E-2,5E-1,-3.550216E-2,4.5E0,-4.015818E-2,-3.9651215E-2,-2.6049018E-2,1E0,4.3214853E-3,5E-1,-3.8378358E-2,-3.2362062E-2,-1.509914E-2],"split_indices":[0,19,132,11,57,47,15,27,113,34,25,148,51,0,0,2,60,20,34,31,0,0,0,49,0,0,0,1,75,114,35,20,25,0,9,0,0,0,0,77,0,25,0,137,0,0,0,0,18,0,0,87,0,0,0,70,0,0,0,0,0,0,0,0,0,3,70,28,0,0,0,10,0,113,10,25,0,2147483647,2147483647,149,0,1,0,0,0],"split_type":[0,0,0,0,0,0,0,0,0,0,0,0,0,0,0,0,0,0,0,0,0,0,0,0,0,0,0,0,0,0,0,0,0,0,0,0,0,0,0,0,0,0,0,0,0,0,0,0,0,0,0,0,0,0,0,0,0,0,0,0,0,0,0,0,0,0,0,0,0,0,0,0,0,0,0,0,0,0,0,0,0,0,0,0,0],"sum_hessian":[4.5710718E2,3.6191177E2,9.519541E1,3.4656024E2,1.5351523E1,7.514104E1,2.0054377E1,2.9901355E2,4.7546677E1,5.08365E0,1.0267873E1,6.891619E1,6.2248416E0,1.7192863E1,2.8615117E0,1.0914193E2,1.8987163E2,1.7389954E1,3.0156723E1,3.8733084E0,1.2103416E0,9.064368E0,1.2035046E0,6.672802E1,2.1881704E0,5.0075207E0,1.2173209E0,1.0376506E2,5.376872E0,1.8389589E2,5.975736E0,1.1631072E1,5.7588816E0,1.6873375E0,2.8469387E1,2.4404993E0,1.4328091E0,6.431223E1,2.4157922E0,7.304523E1,3.0719831E1,3.4545689E0,1.9223033E0,1.8220778E2,1.6881242E0,1.4529022E0,4.5228343E0,3.8555543E0,7.775518E0,3.8138437E0,1.9450378E0,2.7012327E1,1.4570585E0,1.2239982E0,1.1917942E0,5.3292297E1,1.9752928E1,1.2351851E0,2.2193837E0,1.802799E2,1.9278653E0,6.060813E0,1.7147052E0,2.5801435E1,1.2108922E0,4.445938E1,8.832918E0,3.89811E1,5.4782825E0,7.390917E0,1.4420009E0,3.4930233E1,4.050864E0,3.083651E1,4.0937233E0,2.9146053E1,1.6904566E0,2.6230145E0,1.4707092E0,2.7684086E1,1.4619683E0,2.6255116E1,1.4289699E0,2.6699991E0,2.3585115E1],"tree_param":{"num_deleted":"2","num_feature":"210","num_nodes":"85","size_leaf_vector":"0"}},{"base_weights":[-9.098202E-1,-1.2214534E0,1.0605907E0,-1.3718084E0,4.783113E-1,1.4183831E0,-1.1434127E0,-1.4071246E0,1.6097103E0,1.5263857E0,-1.3244443E0,-2.4850143E-1,1.6178093E0,-1.6306808E0,1.6168531E0,-1.4385953E0,8.3279735E-1,1.6033193E0,7.7017033E-1,8.994318E-2,-1.5267731E0,1.0059955E0,-1.6132976E0,-1.4567252E0,1.6415892E0,1.6146327E0,-1.4851751E0,-1.6006066E0,-1.0130842E0,1.4990696E-1,1.582307E0,-1.4715496E0,2.9296752E-2,-1.2585217E0,-1.5675821E0,1.5898141E0,-1.5485157E0,-1.3493565E0,5.0126624E-1,-1.5741005E0,-4.795125E-1,-1.4079998E0,1.8343308E0,1.1246337E0,-1.4990795E0,-1.5839013E0,-1.2157856E0,-1.4710971E0,7.9232097E-1,1.7392828E0,-2.6678088E-1,-1.5877634E0,-8.011803E-1,4.7673142E-1,-1.6108395E0,-1.2348347E0,-1.5993028E0,1.717198E0,-3.574342E-1,-1.5912446E0,-8.680058E-1,-1.131627E0,-1.6028697E0,-1.6143785E0,-7.742305E-1,-1.5949599E0,-9.52302E-1,-1.038435E0,-1.5887945E0,-1.5990099E0,-1.0092267E0,-9.9690354E-1,-1.5442936E0,-1.6023589E0,-9.31614E-1,-9.578763E-1,-1.522657E0,-1.6062737E0,-1.1023881E0],"categories":[],"categories_nodes":[],"categories_segments":[],"categories_sizes":[],"default_left":[1,1,1,1,1,1,1,1,0,1,1,1,0,0,0,1,1,0,0,0,1,1,0,1,0,0,0,0,0,0,0,1,1,1,1,0,0,1,1,1,0,1,0,1,0,1,1,1,1,0,0,1,0,0,0,1,1,0,0,1,0,1,0,0,0,1,0,1,0,1,0,1,0,1,0,0,0,0,0],"id":11,"left_children":[1,3,5,7,9,11,13,15,-1,17,19,21,-1,-1,-1,23,25,-1,-1,-1,27,29,-1,31,-1,-1,-1,-1,-1,-1,-1,33,35,37,39,-1,-1,41,43,45,-1,47,-1,49,-1,51,53,55,57,-1,-1,59,-1,-1,-1,61,63,-1,-1,65,-1,67,-1,-1,-1,69,-1,71,-1,73,-1,75,-1,77,-1,-1,-1,-1,-1],"loss_changes":[2.710536E2,9.743872E1,4.771711E1,3.708734E1,5.884545E1,1.7301811E1,1.1666238E1,2.4511719E1,0E0,1.0210915E0,3.2944546E0,9.810833E0,0E0,0E0,0E0,1.9296753E1,9.043072E0,0E0,0E0,0E0,2.1844864E-1,1.4553864E0,0E0,7.479431E0,0E0,0E0,0E0,0E0,0E0,0E0,0E0,6.6759033E0,8.739928E0,1.6836243E1,1.5640869E0,0E0,0E0,1.8887436E1,6.6799984E0,6.142578E-1,0E0,1.3726791E1,0E0,3.5001178E0,0E0,5.479126E-1,4.454483E0,2.690216E0,3.0365505E0,0E0,0E0,4.1827393E-1,0E0,0E0,0E0,1.1090698E0,6.3946533E-1,0E0,0E0,3.7261963E-1,0E0,9.799309E-1,0E0,0E0,0E0,3.5925293E-1,0E0,3.210926E-1,0E0,3.3758545E-1,0E0,2.8869247E-1,0E0,2.468872E-1,0E0,0E0,0E0,0E0,0E0],"parents":[2147483647,0,0,1,1,2,2,3,3,4,4,5,5,6,6,7,7,9,9,10,10,11,11,15,15,16,16,20,20,21,21,23,23,31,31,32,32,33,33,34,34,37,37,38,38,39,39,41,41,43,43,45,45,46,46,47,47,48,48,51,51,55,55,56,56,59,59,61,61,65,65,67,67,69,69,71,71,73,73],"right_children":[2,4,6,8,10,12,14,16,-1,18,20,22,-1,-1,-1,24,26,-1,-1,-1,28,30,-1,32,-1,-1,-1,-1,-1,-1,-1,34,36,38,40,-1,-1,42,44,46,-1,48,-1,50,-1,52,54,56,58,-1,-1,60,-1,-1,-1,62,64,-1,-1,66,-1,68,-1,-1,-1,70,-1,72,-1,74,-1,76,-1,78,-1,-1,-1,-1,-1],"split_conditions":[1.5E0,7.5E0,2.5E0,5E-1,1E0,1.5E0,1.5E0,4.5E0,4.0242758E-2,5E-1,9.5E0,5E-1,4.0445235E-2,-4.076702E-2,4.042133E-2,6.5E0,2.5E0,4.0082984E-2,1.9254258E-2,2.2485794E-3,2.5E0,1.5E0,-4.033244E-2,1.5E0,4.103973E-2,4.036582E-2,-3.712938E-2,-4.0015165E-2,-2.5327105E-2,3.7476742E-3,3.9557677E-2,5E-1,1.5E0,5E-1,1.45E1,3.9745353E-2,-3.8712893E-2,5E-1,5E-1,3.5E0,-1.1987813E-2,5E-1,4.585827E-2,1.5E0,-3.7476987E-2,5.5E0,3.5E0,5E-1,5E-1,4.3482073E-2,-6.6695223E-3,2.5E0,-2.0029508E-2,1.1918286E-2,-4.0270988E-2,5E-1,1E0,4.292995E-2,-8.935856E-3,1.4E1,-2.1700146E-2,5E-1,-4.0071744E-2,-4.0359464E-2,-1.9355763E-2,5E0,-2.380755E-2,5E-1,-3.971986E-2,1.05E1,-2.5230667E-2,5E-1,-3.860734E-2,3.5E0,-2.329035E-2,-2.394691E-2,-3.806643E-2,-4.015684E-2,-2.7559703E-2],"split_indices":[19,2,47,26,45,45,40,9,0,34,2,99,0,0,0,4,3,0,0,0,103,32,0,54,0,0,0,0,0,0,0,27,30,2,48,0,0,24,104,162,0,20,0,10,0,11,57,5,22,0,0,50,0,0,0,22,17,0,0,45,0,10,0,0,0,137,0,11,0,30,0,41,0,23,0,0,0,0,0],"split_type":[0,0,0,0,0,0,0,0,0,0,0,0,0,0,0,0,0,0,0,0,0,0,0,0,0,0,0,0,0,0,0,0,0,0,0,0,0,0,0,0,0,0,0,0,0,0,0,0,0,0,0,0,0,0,0,0,0,0,0,0,0,0,0,0,0,0,0,0,0,0,0,0,0,0,0,0,0,0,0],"sum_hessian":[4.4111157E2,3.809067E2,6.020485E1,3.4996902E2,3.0937687E1,5.1827026E1,8.377823E0,3.4592435E2,4.0446835E0,1.9573502E1,1.1364185E1,5.535391E0,4.6291634E1,7.155576E0,1.2222464E0,3.4116678E2,4.7575855E0,1.7664394E1,1.9091065E0,1.4291567E0,9.935029E0,2.8979423E0,2.6374485E0,3.392228E2,1.9439622E0,3.5803142E0,1.1772714E0,8.501503E0,1.433526E0,1.2166567E0,1.6812855E0,3.3587314E2,3.3496513E0,1.0480216E2,2.3107098E2,1.683673E0,1.6659782E0,9.96803E1,5.1218657E0,2.2965054E2,1.420444E0,9.793217E1,1.7481279E0,3.9383395E0,1.1835262E0,2.2320334E2,6.447201E0,9.523433E1,2.6978388E0,2.7143087E0,1.2240307E0,2.2200507E2,1.1982833E0,1.2161616E0,5.231039E0,3.3873714E1,6.1360615E1,1.467783E0,1.2300559E0,2.2081601E2,1.1890591E0,2.6773212E1,7.1005025E0,6.016561E1,1.195004E0,2.1939069E2,1.4253187E0,2.251147E1,4.2617416E0,2.1771231E2,1.6783723E0,2.107802E1,1.4334496E0,2.1648587E2,1.2264479E0,1.9884188E1,1.1938337E0,2.1458444E2,1.901425E0],"tree_param":{"num_deleted":"0","num_feature":"210","num_nodes":"79","size_leaf_vector":"0"}},{"base_weights":[-8.5308194E-1,-1.2785516E0,7.677004E-1,-1.3710572E0,8.533949E-1,1.4070985E0,-8.126228E-1,-1.3867483E0,1.6570809E0,1.3409942E0,-1.3327322E0,1.5421016E0,-6.63698E-1,-1.5163902E0,1.5662049E0,-1.4281763E0,-3.6743328E-1,-5.413449E-1,1.598708E0,-9.5515406E-1,-1.5675465E0,1.5671445E0,2.3144117E-1,-1.5754707E0,1.4905666E0,-1.5939862E0,-5.8797425E-1,-1.4405465E0,1.6728144E0,1.2198865E0,-1.5781982E0,1.5806661E0,8.142185E-1,-1.0600234E0,-1.5117929E0,1.6165029E0,-2.87432E-1,1.5963411E0,9.6846503E-1,-8.6765516E-1,-1.5173503E0,-1.5513616E0,-1.2556818E0,-7.523029E-1,-1.5715182E0,-1.4587373E0,-1.5894623E0,-2.9103276E-1,-1.5611881E0,-6.4710486E-1,-1.5909888E0,-1.5367441E0,-2.7902073E-1,5.8689785E-1,-1.5905552E0,-7.367503E-1,-1.594775E0,-5.322432E-1,-1.3927215E0,-1.5486747E0,-8.289507E-1,1.0130078E0,-1.583941E0,-1.0349305E0,1.3385715E0,-4.2722225E-1,-1.560811E0,-1.6350247E0,-9.4071066E-1,1.8056637E0,3.110486E-1,-3.3102098E-1,-1.5347775E0,-8.265357E-1,-2.9582888E-1],"categories":[],"categories_nodes":[],"categories_segments":[],"categories_sizes":[],"default_left":[1,1,1,1,1,1,1,1,0,1,1,1,1,1,0,1,1,0,0,1,1,1,0,0,0,0,0,1,0,1,0,1,0,1,1,0,0,0,0,1,0,1,1,1,0,1,0,1,1,1,0,1,1,1,0,0,0,1,1,0,0,0,0,0,1,1,0,0,0,0,0,1,0,0,0],"id":12,"left_children":[1,3,5,7,9,11,13,15,-1,17,-1,21,23,25,-1,27,29,-1,-1,-1,-1,31,-1,-1,-1,-1,-1,33,-1,35,-1,37,-1,39,41,-1,-1,-1,-1,43,-1,45,47,49,-1,51,-1,53,55,57,-1,59,61,63,-1,-1,-1,65,67,-1,-1,-1,-1,-1,69,71,-1,-1,-1,-1,-1,73,-1,-1,-1],"loss_changes":[3.079562E2,6.9862E1,9.397338E1,1.6336304E1,1.592103E1,1.8600494E1,4.5138046E1,1.4190491E1,0E0,5.968384E0,9.350681E-2,2.003601E0,8.326601E0,1.4009743E0,0E0,1.2672546E1,2.576783E1,0E0,0E0,0E0,0E0,4.9197388E-1,0E0,0E0,0E0,0E0,0E0,8.592346E0,0E0,3.5226603E0,0E0,4.190979E-1,0E0,4.3769646E0,2.5585327E0,0E0,0E0,0E0,0E0,2.8297024E0,0E0,5.9716797E-1,1.082439E1,2.666298E0,0E0,6.3697205E0,0E0,1.035498E1,6.5753937E-1,2.3288174E0,0E0,4.233551E-1,7.653085E0,6.771558E0,0E0,0E0,0E0,2.5770607E0,2.496171E-1,0E0,0E0,0E0,0E0,0E0,1.7491393E0,2.3299704E0,0E0,0E0,0E0,0E0,0E0,3.3628154E-1,0E0,0E0,0E0],"parents":[2147483647,0,0,1,1,2,2,3,3,4,4,5,5,6,6,7,7,9,9,10,10,11,11,12,12,13,13,15,15,16,16,21,21,27,27,29,29,31,31,33,33,34,34,39,39,41,41,42,42,43,43,45,45,47,47,48,48,49,49,51,51,52,52,53,53,57,57,58,58,64,64,65,65,71,71],"right_children":[2,4,6,8,10,12,14,16,-1,18,-1,22,24,26,-1,28,30,-1,-1,-1,-1,32,-1,-1,-1,-1,-1,34,-1,36,-1,38,-1,40,42,-1,-1,-1,-1,44,-1,46,48,50,-1,52,-1,54,56,58,-1,60,62,64,-1,-1,-1,66,68,-1,-1,-1,-1,-1,70,72,-1,-1,-1,-1,-1,74,-1,-1,-1],"split_conditions":[1.5E0,5E-1,1.5E0,1.5E0,5.5E0,4.5E0,1E0,5E-1,4.1427024E-2,1.5E0,-3.3318307E-2,3.5E0,1E0,3.5E0,3.9155122E-2,5E-1,2E0,-1.3533622E-2,3.99677E-2,-2.3878852E-2,-3.9188664E-2,5.5E0,5.786029E-3,-3.9386768E-2,3.7264165E-2,-3.9849654E-2,-1.4699357E-2,5E-1,4.182036E-2,1.5E0,-3.9454956E-2,5.5E0,2.0355463E-2,5E-1,5E-1,4.041257E-2,-7.1857995E-3,3.990853E-2,2.4211626E-2,5E-1,-3.793376E-2,5E-1,1.5E0,2E0,-3.9287955E-2,5E-1,-3.9736558E-2,5E-1,6.5E0,5E-1,-3.977472E-2,1E0,3.5E0,5E-1,-3.976388E-2,-1.8418757E-2,-3.9869376E-2,5E-1,1E0,-3.8716868E-2,-2.0723768E-2,2.5325194E-2,-3.9598525E-2,-2.5873262E-2,5E-1,1E0,-3.9020278E-2,-4.0875617E-2,-2.3517767E-2,4.5141593E-2,7.776215E-3,5E-1,-3.836944E-2,-2.0663394E-2,-7.395722E-3],"split_indices":[0,19,24,83,103,84,84,43,0,5,9,102,10,184,0,60,144,0,0,2147483647,2147483647,94,0,0,0,0,0,5,0,70,0,183,0,27,11,0,0,0,0,18,0,27,62,1,0,2,0,61,25,10,0,162,2,20,0,0,0,102,77,0,0,0,0,0,74,17,0,0,0,0,0,1,0,0,0],"split_type":[0,0,0,0,0,0,0,0,0,0,0,0,0,0,0,0,0,0,0,0,0,0,0,0,0,0,0,0,0,0,0,0,0,0,0,0,0,0,0,0,0,0,0,0,0,0,0,0,0,0,0,0,0,0,0,0,0,0,0,0,0,0,0,0,0,0,0,0,0,0,0,0,0,0,0],"sum_hessian":[4.463339E2,3.5354605E2,9.278784E1,3.3887778E2,1.4668283E1,6.60678E1,2.6720045E1,3.3718475E2,1.6930135E0,1.2024882E1,2.643401E0,6.2048176E1,4.019625E0,2.0647741E1,6.072304E0,3.2397726E2,1.3207503E1,1.4348314E0,1.0590051E1,1.2078936E0,1.4355072E0,6.0865643E1,1.1825329E0,2.8431537E0,1.1764712E0,1.8988976E1,1.6587646E0,3.2274335E2,1.2339135E0,5.71472E0,7.492784E0,5.968386E1,1.1817796E0,5.1148724E1,2.715946E2,4.518529E0,1.196191E0,5.8037094E1,1.6467686E0,3.6208035E1,1.4940689E1,2.3481104E2,3.6783585E1,3.1287395E1,4.920638E0,6.9582375E1,1.6522865E2,8.894404E0,2.7889181E1,2.7957754E1,3.329641E0,6.523833E1,4.3440437E0,5.340983E0,3.553421E0,1.1814861E0,2.6707695E1,2.4374298E1,3.5834568E0,6.404006E1,1.1982633E0,2.1940448E0,2.149999E0,1.6795228E0,3.6614604E0,2.2244572E1,2.1297257E0,2.1625087E0,1.420948E0,2.46513E0,1.1963303E0,2.0586348E1,1.6582245E0,1.2160059E0,1.9370342E1],"tree_param":{"num_deleted":"2","num_feature":"210","num_nodes":"75","size_leaf_vector":"0"}},{"base_weights":[-8.4995174E-1,-1.2859075E0,6.3583815E-1,-1.3591968E0,1.2584845E0,1.1860176E0,-8.090946E-1,-1.4190072E0,-5.5932754E-1,1.5810616E0,-9.6126837E-1,1.5106078E0,-7.387484E-1,-1.4965861E0,1.5514468E0,-1.4316345E0,5.577422E-1,7.412333E-1,-1.5109777E0,1.5627892E0,6.191064E-1,-1.5851063E0,1.5610828E0,-1.5684508E0,-4.5438668E-1,-1.2391729E0,-1.533822E0,1.4092582E0,-1.6282341E0,-1.5680518E0,-8.4255636E-1,1.5768604E0,8.00697E-1,-1.0994204E0,1.5206041E0,-1.2792076E0,1.6004081E0,-1.5496577E0,-2.032464E-1,1.5959984E0,3.0745348E-1,-1.3355702E0,3.9928907E-1,-1.5540007E0,-1.169512E0,1.0428897E0,-1.4766015E0,-1.364092E0,3.172525E-1,1.8045937E0,-1.0708046E0,-1.4631443E0,-7.343257E-1,-1.3903333E0,-7.139988E-1,-1.2544692E0,-1.5500376E0,1.161188E0,-1.5440577E0,-1.1576751E0,-1.5570276E0,-1.1057776E0,-1.5705069E0,-1.0771722E0,-1.5474944E0,-1.0497979E0,-1.529213E0,-1.0178256E0,-1.5022007E0,-9.961018E-1,-1.4519802E0],"categories":[],"categories_nodes":[],"categories_segments":[],"categories_sizes":[],"default_left":[1,1,1,1,1,1,1,1,1,0,0,1,1,1,0,1,0,1,1,1,1,0,0,0,0,1,1,1,0,0,0,0,0,0,0,1,0,1,1,0,0,1,1,0,1,0,0,1,0,0,0,0,0,1,1,1,0,0,0,1,0,1,0,1,0,1,0,1,0,1,1],"id":13,"left_children":[1,3,5,7,9,11,13,15,17,-1,-1,19,21,23,-1,25,-1,27,29,31,33,-1,-1,-1,-1,35,37,39,-1,-1,-1,-1,-1,-1,-1,41,-1,43,45,-1,-1,47,49,-1,51,-1,-1,53,-1,-1,-1,-1,-1,55,57,59,-1,-1,-1,61,-1,63,-1,65,-1,67,-1,-1,-1,-1,-1],"loss_changes":[2.8888245E2,6.445856E1,8.0556755E1,1.5954102E1,7.100525E0,4.5932762E1,4.562346E1,7.8616943E0,2.9175175E1,0E0,0E0,2.824295E0,2.0978773E1,1.554924E0,0E0,5.903076E0,0E0,1.6040974E1,3.864441E-1,5.091553E-1,5.8028455E0,0E0,0E0,0E0,0E0,1.2478516E1,4.2236023E0,1.5652342E0,0E0,0E0,0E0,0E0,0E0,0E0,0E0,1.0130661E1,0E0,1.4770508E-1,4.1054897E0,0E0,0E0,4.902771E0,7.501793E0,0E0,2.3224115E-1,0E0,0E0,1.6297455E0,0E0,0E0,0E0,0E0,0E0,1.9171143E0,6.6201715E0,1.3750305E0,0E0,0E0,0E0,6.967201E-1,0E0,2.9357147E-1,0E0,2.6686478E-1,0E0,3.227806E-1,0E0,1.4798737E-1,0E0,0E0,0E0],"parents":[2147483647,0,0,1,1,2,2,3,3,4,4,5,5,6,6,7,7,8,8,11,11,12,12,13,13,15,15,17,17,18,18,19,19,20,20,25,25,26,26,27,27,35,35,37,37,38,38,41,41,42,42,44,44,47,47,53,53,54,54,55,55,59,59,61,61,63,63,65,65,67,67],"right_children":[2,4,6,8,10,12,14,16,18,-1,-1,20,22,24,-1,26,-1,28,30,32,34,-1,-1,-1,-1,36,38,40,-1,-1,-1,-1,-1,-1,-1,42,-1,44,46,-1,-1,48,50,-1,52,-1,-1,54,-1,-1,-1,-1,-1,56,58,60,-1,-1,-1,62,-1,64,-1,66,-1,68,-1,-1,-1,-1,-1],"split_conditions":[5E-1,5E-1,1.5E0,5E-1,9E0,5E-1,5E-1,5E-1,1.5E0,3.952654E-2,-2.403171E-2,3.5E0,1.5E0,2.5E0,3.878617E-2,5E-1,1.3943555E-2,2.5E0,2.5E0,5E-1,6.5E0,-3.9627656E-2,3.9027072E-2,-3.921127E-2,-1.1359667E-2,1E0,5E-1,5E-1,-4.0705856E-2,-3.9201297E-2,-2.1063909E-2,3.942151E-2,2.0017426E-2,-2.748551E-2,3.8015105E-2,5E-1,4.0010203E-2,5E0,1.5E0,3.989996E-2,7.686337E-3,5E-1,5E-1,-3.885002E-2,1E0,2.6072243E-2,-3.6915038E-2,5E-1,7.931313E-3,4.511484E-2,-2.6770115E-2,-3.6578607E-2,-1.8358143E-2,5E-1,2.5E0,1E0,-3.8750943E-2,2.90297E-2,-3.8601443E-2,5E-1,-3.892569E-2,5E-1,-3.9262675E-2,5E-1,-3.868736E-2,5E-1,-3.8230326E-2,-2.544564E-2,-3.755502E-2,-2.4902545E-2,-3.6299508E-2],"split_indices":[0,36,24,6,44,105,15,63,62,0,0,34,19,91,0,27,0,16,78,111,31,0,0,0,0,31,60,67,0,0,0,0,0,0,0,24,0,189,145,0,0,20,20,0,80,0,0,17,0,0,0,0,0,22,17,3,0,0,0,14,0,113,0,86,0,45,0,32,0,2147483647,2147483647],"split_type":[0,0,0,0,0,0,0,0,0,0,0,0,0,0,0,0,0,0,0,0,0,0,0,0,0,0,0,0,0,0,0,0,0,0,0,0,0,0,0,0,0,0,0,0,0,0,0,0,0,0,0,0,0,0,0,0,0,0,0,0,0,0,0,0,0,0,0,0,0,0,0],"sum_hessian":[4.4576004E2,3.4464798E2,1.0111206E2,3.3504385E2,9.604107E0,7.3242004E1,2.7870058E1,3.1166187E2,2.3382E1,8.410637E0,1.1934705E0,6.269133E1,1.0550673E1,2.1612242E1,6.257817E0,3.0971103E2,1.9508308E0,9.889183E0,1.3492817E1,5.9153652E1,3.5376787E0,7.735148E0,2.8155246E0,2.0170866E1,1.4413751E0,1.0786631E2,2.0184473E2,7.7459016E0,2.1432812E0,1.2307346E1,1.1854707E0,5.797627E1,1.1773833E0,1.2096899E0,2.3279889E0,1.0642085E2,1.4454559E0,1.9945445E2,2.3902707E0,6.584987E0,1.1609142E0,1.0298319E2,3.4376602E0,1.968962E2,2.5582516E0,1.2171941E0,1.1730766E0,1.01253395E2,1.7297996E0,1.7459259E0,1.6917343E0,1.3865181E0,1.1717335E0,9.7215385E1,4.03801E0,5.3006805E1,4.420858E1,1.2267549E0,2.8112552E0,4.05248E1,1.2482004E1,3.6326065E1,4.1987357E0,3.443963E1,1.8864367E0,3.278641E1,1.6532191E0,3.0925797E1,1.8606129E0,2.976584E1,1.1599557E0],"tree_param":{"num_deleted":"2","num_feature":"210","num_nodes":"71","size_leaf_vector":"0"}},{"base_weights":[-8.2763886E-1,-1.242592E0,7.414172E-1,-1.3338094E0,7.9050136E-1,1.2212746E0,-1.1986082E0,-1.3510729E0,1.5729476E0,-9.7173053E-1,1.3471813E0,1.3877017E0,-1.3583581E0,-1.549024E0,1.4802243E0,-1.4216344E0,-8.919185E-1,1.4593935E-1,-1.5314149E0,1.5486174E0,-3.6909974E-1,1.4622191E0,-1.5455141E0,-7.6636624E-1,-1.5417155E0,-1.119745E0,-1.4856398E0,2.1283294E-1,-1.494674E0,1.5137537E0,-1.4170722E0,-1.1741911E0,9.6348804E-1,-1.5086555E0,-9.156448E-1,6.813663E-1,-1.5354681E0,-1.550444E0,-1.032576E0,1.5528368E0,1.711784E-1,-1.0266997E0,-1.5500972E0,-1.4285543E0,-1.5447993E0,1.7414494E0,-1.4352967E0,-1.2377521E0,1.1936084E0,-1.23019E-1,-1.5197668E0,-8.570502E-1,-1.5338084E0,-1.4740156E0,-5.8329296E-1,-8.0958015E-1,-1.5315359E0,-8.3747524E-1,-1.494019E0,1.4824954E0,-8.204296E-1,-7.63374E-1,-1.542625E0,-1.2915573E0,-1.54429E0,8.408148E-1,-1.4800636E0,1.6809602E0,7.489638E-1,-6.8012077E-1,-1.4841229E0,-1.4477088E0,6.02707E-1,-9.294613E-1,-6.5759045E-1,-1.4952115E0,-6.995747E-1,-1.5459095E0,-1.1944466E0,-7.204088E-1,-1.4737958E0],"categories":[],"categories_nodes":[],"categories_segments":[],"categories_sizes":[],"default_left":[1,1,1,1,1,1,1,1,0,1,1,1,1,0,0,1,1,0,0,0,0,1,0,0,0,1,1,1,1,1,0,1,0,1,1,1,0,0,1,0,0,1,0,1,0,0,1,1,1,0,0,1,0,1,1,0,0,1,1,1,0,1,0,1,0,0,0,0,0,1,0,1,0,1,1,1,0,0,1,0,0],"id":14,"left_children":[1,3,5,7,9,11,13,15,-1,17,19,21,23,-1,-1,25,27,-1,-1,-1,-1,29,-1,-1,-1,31,33,35,37,39,-1,41,-1,43,45,47,-1,-1,49,-1,-1,51,-1,53,-1,-1,55,-1,59,-1,-1,61,-1,63,65,-1,-1,-1,-1,67,-1,69,-1,71,-1,-1,-1,-1,-1,-1,-1,75,-1,-1,-1,77,-1,-1,79,-1,-1],"loss_changes":[2.855855E2,6.442377E1,8.558022E1,1.6870728E1,1.4801765E1,3.179657E1,1.735941E1,1.0566528E1,0E0,2.3044584E0,4.0007286E0,1.5353775E1,3.7166595E-1,0E0,0E0,5.3583374E0,2.9486908E1,0E0,0E0,0E0,0E0,1.0237381E1,0E0,0E0,0E0,5.832176E0,2.9526978E0,1.2966905E1,5.7777786E-1,3.4579926E0,0E0,2.567688E0,0E0,4.3444824E-1,1.3226929E1,1.2389492E1,0E0,0E0,1.4803057E0,0E0,0E0,2.9328957E0,0E0,2.66893E0,0E0,0E0,3.5268974E-1,1.4903498E-1,5.8701754E0,0E0,0E0,1.6109028E0,0E0,6.7204285E-1,5.008798E0,0E0,0E0,0E0,0E0,1.1372089E0,0E0,1.3319216E0,0E0,5.8581734E0,0E0,0E0,0E0,0E0,0E0,6.0171127E-2,0E0,5.3699875E-1,0E0,0E0,0E0,7.28569E-2,0E0,0E0,2.7465868E-1,0E0,0E0],"parents":[2147483647,0,0,1,1,2,2,3,3,4,4,5,5,6,6,7,7,9,9,10,10,11,11,12,12,15,15,16,16,21,21,25,25,26,26,27,27,28,28,29,29,31,31,33,33,34,34,35,35,38,38,41,41,43,43,46,46,47,47,48,48,51,51,53,53,54,54,59,59,61,61,63,63,69,69,71,71,75,75,78,78],"right_children":[2,4,6,8,10,12,14,16,-1,18,20,22,24,-1,-1,26,28,-1,-1,-1,-1,30,-1,-1,-1,32,34,36,38,40,-1,42,-1,44,46,48,-1,-1,50,-1,-1,52,-1,54,-1,-1,56,-1,60,-1,-1,62,-1,64,66,-1,-1,-1,-1,68,-1,70,-1,72,-1,-1,-1,-1,-1,-1,-1,76,-1,-1,-1,78,-1,-1,80,-1,-1],"split_conditions":[1.5E0,5E-1,1.5E0,6.5E0,5E-1,8.5E0,1E0,5E-1,3.932369E-2,5E-1,2.5E0,1.2E1,2E0,-3.87256E-2,3.7005607E-2,5E-1,1.5E0,3.648484E-3,-3.828537E-2,3.8715433E-2,-9.227494E-3,5E-1,-3.8637854E-2,-1.9159157E-2,-3.854289E-2,2E0,1.5E0,1.5E0,2.5E0,3.5E0,-3.5426807E-2,5E-1,2.4087202E-2,5E-1,1.5E0,5E-1,-3.8386703E-2,-3.87611E-2,2.7E1,3.882092E-2,4.2794603E-3,2E0,-3.8752433E-2,1.85E1,-3.8619984E-2,4.3536235E-2,1E0,-3.0943802E-2,5E-1,-3.075475E-3,-3.7994172E-2,2E0,-3.834521E-2,3.5E0,2.35E1,-2.0239504E-2,-3.8288396E-2,-2.0936882E-2,-3.7350476E-2,2.5E0,-2.051074E-2,5E-1,-3.8565625E-2,5E-1,-3.860725E-2,2.1020371E-2,-3.700159E-2,4.2024005E-2,1.8724095E-2,-1.700302E-2,-3.710307E-2,3.5E0,1.5067676E-2,-2.3236534E-2,-1.6439762E-2,5E-1,-1.7489368E-2,-3.8647737E-2,1.5E0,-1.801022E-2,-3.6844894E-2],"split_indices":[0,19,132,4,45,133,15,11,0,59,169,22,16,0,0,5,62,0,0,0,0,203,0,0,0,2,53,173,58,49,0,22,0,70,80,20,0,0,25,0,0,25,0,25,0,0,90,5,128,0,0,1,0,25,25,0,0,2147483647,2147483647,20,0,10,0,2,0,0,0,0,0,1,0,5,0,2147483647,2147483647,29,0,0,3,0,0],"split_type":[0,0,0,0,0,0,0,0,0,0,0,0,0,0,0,0,0,0,0,0,0,0,0,0,0,0,0,0,0,0,0,0,0,0,0,0,0,0,0,0,0,0,0,0,0,0,0,0,0,0,0,0,0,0,0,0,0,0,0,0,0,0,0,0,0,0,0,0,0,0,0,0,0,0,0,0,0,0,0,0,0],"sum_hessian":[4.383887E2,3.4671667E2,9.167202E1,3.3186166E2,1.4855011E1,7.352336E1,1.8148659E1,3.2995557E2,1.906122E0,3.5482085E0,1.1306803E1,6.9110825E1,4.412537E0,1.6086565E1,2.062095E0,2.8582172E2,4.413385E1,1.2086005E0,2.339608E0,1.0127885E1,1.1789181E0,6.7447495E1,1.6633308E0,1.1659821E0,3.2465549E0,5.0321842E1,2.3549986E2,1.5602228E1,2.8531622E1,6.630811E1,1.1393788E0,4.9082684E1,1.2391597E0,2.2620145E2,9.298407E0,1.2352788E1,3.2494404E0,2.5248846E1,3.2827764E0,6.441724E1,1.8908795E0,3.5519344E1,1.3563338E1,7.159238E1,1.5460907E2,1.4825717E0,7.8158345E0,2.5726612E0,9.780127E0,1.1887325E0,2.0940437E0,2.6816942E1,8.702401E0,6.7867805E1,3.7245717E0,1.167346E0,6.6484885E0,1.1707709E0,1.4018904E0,8.576354E0,1.2037721E0,2.3779133E1,3.0378094E0,1.9410023E1,4.8457787E1,1.4415585E0,2.283013E0,6.6483994E0,1.9279549E0,2.149108E1,2.288055E0,1.7953611E1,1.4564121E0,1.447407E0,2.004367E1,1.6787815E1,1.1657954E0,1.4011917E1,2.775899E0,1.1619803E0,1.6139185E0],"tree_param":{"num_deleted":"4","num_feature":"210","num_nodes":"81","size_leaf_vector":"0"}},{"base_weights":[-8.109637E-1,-1.2223676E0,7.607933E-1,-1.3149387E0,8.6598045E-1,1.355649E0,-7.069758E-1,-1.3572633E0,-2.4972604E-1,1.3317621E0,-1.020075E0,1.5139284E0,-1.3149219E0,-1.4448293E0,1.5063096E0,-1.1581441E0,-1.4710423E0,1.1822737E0,-1.5108128E0,3.1581983E-1,1.5287507E0,-1.5234936E0,-2.4905594E-1,1.5276803E0,8.8887876E-1,-7.9355747E-1,-1.5271055E0,-1.5264465E0,-3.8965467E-1,-1.2588288E0,-2.637991E-1,-1.4853898E0,2.394706E-1,1.5440142E0,-2.393314E-1,-1.0325404E0,-1.4282532E0,7.380849E-1,-1.3607949E0,-1.4975079E0,-2.6154593E-1,-8.97335E-1,-1.5091616E0,-1.4699584E0,-1.7916861E-1,1.2368277E0,-5.587249E-1,-9.738531E-1,-1.494829E0,-1.5046086E0,-9.629318E-1,-8.113164E-1,-1.5006354E0,-1.4859791E0,-9.391941E-1,2.0780377E-1,1.7285827E0,-1.5084113E0,-8.1309307E-1,-4.4187987E-1,-1.4208292E0,-7.1332574E-1,-1.5284772E0,-1.5126526E0,-1.0695796E0,-5.5221903E-1,-1.3546374E0,-1.5165832E0,-1.1421083E0,-1.5445548E0,-4.8656103E-1,-1.0964588E0,-1.4848131E0,-7.815889E-1,-1.4118028E0,-4.0804446E-1,-1.4642553E0],"categories":[],"categories_nodes":[],"categories_segments":[],"categories_sizes":[],"default_left":[1,1,1,1,1,1,1,1,1,1,1,1,1,1,0,1,1,1,0,0,0,0,0,0,0,0,0,0,0,1,1,1,0,0,0,1,1,1,1,1,0,1,0,1,0,1,0,1,1,1,1,1,0,0,0,0,0,1,0,0,0,1,0,1,0,1,1,1,1,0,1,1,1,1,1,0,0],"id":15,"left_children":[1,3,5,7,9,11,13,15,17,19,21,23,25,27,-1,29,31,33,-1,-1,-1,-1,-1,-1,-1,-1,-1,-1,-1,35,37,39,-1,-1,-1,41,43,45,-1,49,-1,51,-1,53,-1,55,-1,-1,-1,57,59,61,-1,-1,-1,-1,-1,63,-1,-1,-1,65,-1,-1,-1,69,-1,-1,-1,-1,75,-1,-1,-1,-1,-1,-1],"loss_changes":[2.7534814E2,6.5342224E1,7.7250916E1,1.4534241E1,1.2770271E1,2.6793938E1,4.19442E1,6.869995E0,2.269957E1,2.2686138E0,1.0896101E0,3.7516785E-1,2.7417278E-1,1.5951996E0,0E0,1.0184433E1,4.879822E0,3.0689E0,0E0,0E0,0E0,0E0,0E0,0E0,0E0,0E0,0E0,0E0,0E0,3.7616425E0,1.285871E1,2.8640442E0,0E0,0E0,0E0,2.7010574E0,2.997467E0,4.035135E0,1.4363194E-1,5.908203E-1,0E0,1.6704903E0,0E0,3.3795166E-1,0E0,2.2208953E0,0E0,0E0,0E0,3.798828E-1,6.0967684E-1,2.0304108E0,0E0,0E0,0E0,0E0,0E0,1.9174194E-1,0E0,0E0,0E0,2.711896E0,0E0,1.00372314E-1,0E0,1.3403492E0,1.688385E-2,0E0,1.2076926E-1,0E0,1.5157003E0,0E0,0E0,0E0,0E0,0E0,0E0],"parents":[2147483647,0,0,1,1,2,2,3,3,4,4,5,5,6,6,7,7,8,8,9,9,10,10,11,11,12,12,13,13,15,15,16,16,17,17,29,29,30,30,31,31,35,35,36,36,37,37,38,38,39,39,41,41,43,43,45,45,49,49,50,50,51,51,57,57,61,61,63,63,65,65,66,66,68,68,70,70],"right_children":[2,4,6,8,10,12,14,16,18,20,22,24,26,28,-1,30,32,34,-1,-1,-1,-1,-1,-1,-1,-1,-1,-1,-1,36,38,40,-1,-1,-1,42,44,46,-1,50,-1,52,-1,54,-1,56,-1,-1,-1,58,60,62,-1,-1,-1,-1,-1,64,-1,-1,-1,66,-1,-1,-1,70,-1,-1,-1,-1,76,-1,-1,-1,-1,-1,-1],"split_conditions":[1.5E0,5E-1,1.5E0,5E-1,3.5E0,3E0,5E-1,5E-1,3.5E0,5E-1,1.5E0,4.5E0,1.5E0,2.5E0,3.765774E-2,5E-1,4E0,1E0,-3.777032E-2,7.895496E-3,3.8218766E-2,-3.8087342E-2,-6.2263985E-3,3.8192008E-2,2.222197E-2,-1.9838937E-2,-3.8177636E-2,-3.8161162E-2,-9.741367E-3,5E-1,1.5E0,5E-1,5.986765E-3,3.8600355E-2,-5.983285E-3,5E-1,5E-1,5E-1,-3.4019873E-2,8.5E0,-6.538648E-3,5E-1,-3.772904E-2,1.5E0,-4.4792155E-3,5E-1,-1.3968122E-2,-2.4346327E-2,-3.7370726E-2,7.5E0,3.5E0,2E0,-3.7515886E-2,-3.7149478E-2,-2.3479853E-2,5.1950943E-3,4.321457E-2,2.5E0,-2.0327328E-2,-1.1046997E-2,-3.552073E-2,5E-1,-3.821193E-2,-3.7816316E-2,-2.6739491E-2,5E-1,-3.3865936E-2,-3.791458E-2,-2.855271E-2,-3.861387E-2,5E-1,-2.741147E-2,-3.7120327E-2,-1.9539723E-2,-3.529507E-2,-1.0201111E-2,-3.6606383E-2],"split_indices":[0,19,24,43,81,148,15,3,144,33,46,158,22,91,0,20,124,132,0,0,0,0,0,0,0,0,0,0,0,5,27,63,0,0,0,27,17,18,20,132,0,10,0,39,0,5,0,2147483647,2147483647,20,3,1,0,0,0,0,0,90,0,0,0,22,0,75,0,1,102,2147483647,2147483647,0,11,2147483647,2147483647,2147483647,2147483647,0,0],"split_type":[0,0,0,0,0,0,0,0,0,0,0,0,0,0,0,0,0,0,0,0,0,0,0,0,0,0,0,0,0,0,0,0,0,0,0,0,0,0,0,0,0,0,0,0,0,0,0,0,0,0,0,0,0,0,0,0,0,0,0,0,0,0,0,0,0,0,0,0,0,0,0,0,0,0,0,0,0],"sum_hessian":[4.2557834E2,3.3731033E2,8.826801E1,3.2302835E2,1.4281975E1,6.2817184E1,2.5450832E1,3.106574E2,1.2370928E1,1.1476996E1,2.8049784E0,5.9343334E1,3.47385E0,1.9113571E1,6.3372617E0,1.1337061E2,1.972868E2,5.7958384E0,6.5750895E0,1.9062239E0,9.570773E0,1.6379335E0,1.1670448E0,5.7924515E1,1.4188176E0,1.1419405E0,2.3319097E0,1.7699837E1,1.413734E0,1.0186229E2,1.1508321E1,1.956588E2,1.6280041E0,4.613325E0,1.1825134E0,4.391611E1,5.7946182E1,6.0320134E0,5.476308E0,1.9371832E2,1.9404843E0,3.4435806E1,9.480304E0,5.605684E1,1.8893417E0,4.359868E0,1.6721454E0,1.6215732E0,3.8547344E0,1.9099982E2,2.7184973E0,3.0343855E1,4.0919504E0,5.4239693E1,1.8171493E0,1.4557954E0,2.9040728E0,1.8983777E2,1.1620582E0,1.3634726E0,1.3550247E0,2.6871662E1,3.4721937E0,1.8777818E2,2.0595884E0,2.1625206E1,5.246456E0,1.8550119E2,2.2769816E0,1.2022548E0,2.042295E1,2.074458E0,3.171998E0,1.141228E0,1.1357536E0,1.903595E1,1.3870015E0],"tree_param":{"num_deleted":"8","num_feature":"210","num_nodes":"77","size_leaf_vector":"0"}},{"base_weights":[-8.7382644E-1,-1.2357733E0,6.000859E-1,-1.2926778E0,1.3774755E0,9.5152056E-1,-1.1938448E0,-1.351981E0,4.6997586E-1,1.493157E0,6.936687E-1,1.6951766E-2,1.3356596E0,-1.5205928E0,1.5298189E0,-1.3665702E0,1.4659547E0,1.4854585E0,-1.1748527E0,1.50178E0,-9.178084E-1,1.4019643E0,-1.3958006E0,-1.1709461E0,-1.4593366E0,-1.4925866E0,-3.107056E-1,-1.277835E0,1.4658265E0,-9.852824E-1,1.4736564E0,-1.2165166E0,1.5557921E0,-1.466923E0,-9.233528E-1,-4.4854468E-1,-1.463711E0,1.5167466E0,7.523985E-2,-1.2935656E0,-1.586395E-1,-1.4788814E0,-1.0698494E0,4.099863E-2,-1.4541695E0,-1.5465591E0,-8.115698E-1,-1.0240482E0,-1.44037E0,4.38239E-1,-1.5051322E0,-1.4894198E0,-1.2454317E0,4.5691994E-1,-1.4794015E0,-8.8438636E-1,-1.5165038E0,1.0937847E0,-1.5106101E0,-1.4938648E0,-7.912267E-1,-1.4927769E0,-3.3515674E-1,-8.130019E-1,-1.4633567E0,3.2046294E-1,1.7087584E0,-1.4983716E0,-9.6425897E-1],"categories":[],"categories_nodes":[],"categories_segments":[],"categories_sizes":[],"default_left":[1,1,1,1,1,1,1,1,1,0,0,1,1,0,0,1,0,0,1,0,1,1,0,1,1,0,0,1,0,0,1,1,0,1,1,0,1,0,0,1,1,1,1,0,0,0,0,1,0,1,0,1,1,0,0,1,0,1,0,1,0,0,0,0,0,0,0,0,0],"id":16,"left_children":[1,3,5,7,9,11,13,15,17,-1,-1,19,21,-1,-1,23,-1,-1,25,-1,27,29,-1,31,33,-1,-1,35,-1,-1,37,39,-1,41,43,-1,45,-1,-1,47,49,51,53,-1,-1,-1,-1,55,-1,57,-1,59,61,-1,-1,63,-1,65,-1,67,-1,-1,-1,-1,-1,-1,-1,-1,-1],"loss_changes":[2.2610092E2,5.0765686E1,5.281826E1,3.4871277E1,4.7374344E-1,2.5113613E1,1.2459421E1,1.3445435E1,1.8401995E1,0E0,0E0,2.8563988E1,9.174896E0,0E0,0E0,5.6465454E0,0E0,0E0,1.1126895E0,0E0,1.102633E1,8.437988E0,0E0,1.3065384E1,7.4713135E-1,0E0,0E0,1.6340141E0,0E0,0E0,2.8256226E0,8.291336E0,0E0,8.571472E-1,1.694725E0,0E0,3.5876465E-1,0E0,0E0,3.6128235E0,5.721551E0,3.2455444E-1,4.2029576E0,0E0,0E0,0E0,0E0,2.1945953E0,0E0,6.4931617E0,0E0,4.9591064E-1,2.1037073E0,0E0,0E0,9.811325E-1,0E0,1.735486E0,0E0,3.2452393E-1,0E0,0E0,0E0,0E0,0E0,0E0,0E0,0E0,0E0],"parents":[2147483647,0,0,1,1,2,2,3,3,4,4,5,5,6,6,7,7,8,8,11,11,12,12,15,15,18,18,20,20,21,21,23,23,24,24,27,27,30,30,31,31,33,33,34,34,36,36,39,39,40,40,41,41,42,42,47,47,49,49,51,51,52,52,55,55,57,57,59,59],"right_children":[2,4,6,8,10,12,14,16,18,-1,-1,20,22,-1,-1,24,-1,-1,26,-1,28,30,-1,32,34,-1,-1,36,-1,-1,38,40,-1,42,44,-1,46,-1,-1,48,50,52,54,-1,-1,-1,-1,56,-1,58,-1,60,62,-1,-1,64,-1,66,-1,68,-1,-1,-1,-1,-1,-1,-1,-1,-1],"split_conditions":[5E-1,1.5E0,2.5E0,5E-1,3.5E0,5E-1,5E-1,6E0,5E-1,3.7328925E-2,1.7341718E-2,5E-1,6.5E0,-3.801482E-2,3.8245473E-2,5E-1,3.6648866E-2,3.713646E-2,5E-1,3.75445E-2,5E-1,5E-1,-3.4895014E-2,1E0,4.5E0,-3.7314665E-2,-7.76764E-3,5E-1,3.6645662E-2,-2.463206E-2,3E0,5E-1,3.8894802E-2,7.5E0,5E-1,-1.1213617E-2,1.55E1,3.791867E-2,1.8809963E-3,5E-1,5E-1,2.5E0,8E0,1.0249658E-3,-3.635424E-2,-3.866398E-2,-2.0289246E-2,5E-1,-3.600925E-2,1E0,-3.7628304E-2,5E-1,5E-1,1.1422998E-2,-3.6985036E-2,5E-1,-3.7912596E-2,5E-1,-3.7765253E-2,5.5E0,-1.9780667E-2,-3.731942E-2,-8.378918E-3,-2.0325048E-2,-3.658392E-2,8.011574E-3,4.2718958E-2,-3.745929E-2,-2.4106475E-2],"split_indices":[8,19,47,43,6,4,112,4,16,0,0,92,135,0,0,27,0,0,9,0,159,6,0,31,114,0,0,144,0,0,148,2,0,2,106,0,31,0,0,5,102,16,31,0,0,0,0,22,0,29,0,54,162,0,0,10,0,22,0,137,0,0,0,0,0,0,0,0,0],"split_type":[0,0,0,0,0,0,0,0,0,0,0,0,0,0,0,0,0,0,0,0,0,0,0,0,0,0,0,0,0,0,0,0,0,0,0,0,0,0,0,0,0,0,0,0,0,0,0,0,0,0,0,0,0,0,0,0,0,0,0,0,0,0,0,0,0,0,0,0,0],"sum_hessian":[4.2358536E2,3.4008682E2,8.3498535E1,3.3288858E2,7.1982365E0,6.985982E1,1.3638721E1,3.2207584E2,1.081273E1,6.0554576E0,1.142779E0,2.0380552E1,4.9479263E1,1.2217236E1,1.4214859E0,3.204682E2,1.6076437E0,6.6913314E0,4.1213984E0,7.8501887E0,1.2530363E1,4.8354168E1,1.1250964E0,1.0352299E2,2.169452E2,2.9602392E0,1.1611593E0,1.0926417E1,1.6039455E0,1.3726468E0,4.698152E1,1.0187578E2,1.6472118E0,2.1374615E2,3.199049E0,2.0631113E0,8.863306E0,4.5568916E1,1.4126048E0,9.4938774E1,6.9370074E0,2.0723267E2,6.5134926E0,1.168491E0,2.0305579E0,7.742541E0,1.1207651E0,3.3758774E1,6.1179996E1,4.8531413E0,2.0838661E0,1.9776697E2,9.465696E0,1.3752251E0,5.1382675E0,2.6517832E1,7.2409434E0,3.6644008E0,1.1887404E0,1.9640265E2,1.3643264E0,7.392871E0,2.072826E0,2.3821203E1,2.696628E0,1.6906009E0,1.9737998E0,1.9456403E2,1.838615E0],"tree_param":{"num_deleted":"0","num_feature":"210","num_nodes":"69","size_leaf_vector":"0"}},{"base_weights":[-7.9059184E-1,-1.1940745E0,7.0547503E-1,-1.2678417E0,7.8057694E-1,1.14311E0,-1.2180554E0,-8.1132907E-1,-1.3607746E0,1.1437969E0,-1.4822291E0,1.3742384E0,-9.784813E-1,-1.4931746E0,1.4007372E0,-1.0236335E0,1.36606E0,-1.373624E0,1.4639109E0,-1.0795408E0,1.5025299E0,1.4369715E0,-1.4632068E0,-1.483906E0,1.5017388E0,-8.32046E-1,-1.5025835E0,9.341399E-1,1.4856987E0,-1.3864393E0,1.447213E0,1.492887E0,-9.550284E-2,-5.9497815E-1,-1.4131037E0,-1.397455E0,9.994941E-1,-1.5129615E0,1.3845874E0,-4.710494E-1,-1.4935696E0,-1.482786E0,-7.787384E-1,-1.4058762E0,-8.413628E-2,-3.8497195E-1,-1.4113455E0,-1.2891799E0,-1.4832131E0,-1.0527787E0,-3.1281742E-1,-1.3150586E0,9.2691344E-1,-1.489374E0,-1.1404661E0,-1.3438759E0,4.4197488E-1,-5.7037485E-1,-1.4183371E0,-1.3637003E0,3.4229484E-1,-1.3837861E0,-7.600037E-1,-1.4335696E0,-1.1919096E0,5.071042E-1,-1.4273239E0,-1.443445E0,-9.6814024E-1,7.321376E-1,-1.4492313E0,-1.4533216E0,-7.436845E-1,-1.4936603E0,-1.0422366E0,-1.4639255E0,-9.712757E-1],"categories":[],"categories_nodes":[],"categories_segments":[],"categories_sizes":[],"default_left":[1,1,1,1,1,1,1,1,1,1,0,1,1,0,0,1,1,1,0,0,0,1,0,0,0,1,0,1,1,1,0,0,1,1,1,1,0,0,0,1,0,0,0,1,0,1,0,1,1,0,0,1,0,0,1,1,0,0,0,1,0,1,1,1,1,0,0,1,0,0,1,1,0,0,0,0,0],"id":17,"left_children":[1,3,5,7,9,11,13,15,17,19,-1,21,23,-1,-1,25,-1,29,-1,-1,-1,31,-1,-1,-1,33,-1,-1,-1,35,-1,-1,37,39,41,43,-1,-1,-1,45,-1,-1,-1,47,-1,49,-1,51,53,-1,-1,55,-1,-1,57,59,-1,-1,-1,61,-1,63,65,67,69,-1,-1,71,-1,-1,73,75,-1,-1,-1,-1,-1],"loss_changes":[2.5631396E2,4.8802002E1,7.6091675E1,1.3565247E1,1.0116497E1,3.620253E1,1.2292679E1,2.54581E1,9.916504E0,8.524831E0,0E0,1.2024231E1,9.354176E0,0E0,0E0,4.4594307E0,1.1486721E-1,9.835419E0,0E0,0E0,0E0,5.5827484E0,0E0,0E0,0E0,4.8625317E0,0E0,0E0,0E0,7.1140747E0,0E0,0E0,5.2060447E0,2.7890825E0,3.412876E-1,2.9100342E0,0E0,0E0,0E0,1.7838669E0,0E0,0E0,0E0,2.1777954E0,0E0,9.7625756E-1,0E0,6.165909E0,1.621399E-1,0E0,0E0,5.336075E0,0E0,0E0,4.2645836E-1,3.474884E0,0E0,0E0,0E0,1.1242065E0,0E0,7.652283E-1,3.0204115E0,2.156372E-1,1.0395073E1,0E0,0E0,4.1377258E-1,0E0,0E0,1.7638779E-1,2.3786926E-1,0E0,0E0,0E0,0E0,0E0],"parents":[2147483647,0,0,1,1,2,2,3,3,4,4,5,5,6,6,7,7,8,8,9,9,11,11,12,12,15,15,16,16,17,17,21,21,25,25,29,29,32,32,33,33,34,34,35,35,39,39,43,43,45,45,47,47,48,48,51,51,54,54,55,55,59,59,61,61,62,62,63,63,64,64,67,67,70,70,71,71],"right_children":[2,4,6,8,10,12,14,16,18,20,-1,22,24,-1,-1,26,-1,30,-1,-1,-1,32,-1,-1,-1,34,-1,-1,-1,36,-1,-1,38,40,42,44,-1,-1,-1,46,-1,-1,-1,48,-1,50,-1,52,54,-1,-1,56,-1,-1,58,60,-1,-1,-1,62,-1,64,66,68,70,-1,-1,72,-1,-1,74,76,-1,-1,-1,-1,-1],"split_conditions":[1.5E0,5E-1,1.5E0,5E-1,5.5E0,2.5E0,5E-1,2E0,1.05E1,1.5E0,-3.7055727E-2,1.2E1,5E-1,-3.7329365E-2,3.501843E-2,5E-1,3.4151502E-2,5E-1,3.6597773E-2,-2.6988521E-2,3.7563246E-2,3.5E0,-3.658017E-2,-3.709765E-2,3.7543472E-2,2E0,-3.7564587E-2,2.3353498E-2,3.7142467E-2,4.5E0,3.618033E-2,3.7322175E-2,3.5E0,2E0,1.5E0,5E-1,2.4987353E-2,-3.782404E-2,3.4614686E-2,5E-1,-3.733924E-2,-3.7069652E-2,-1.946846E-2,5E-1,-2.103407E-3,5E-1,-3.5283636E-2,5E-1,1.65E1,-2.6319468E-2,-7.820436E-3,3E0,2.3172837E-2,-3.723435E-2,1E1,5E-1,1.1049372E-2,-1.4259371E-2,-3.5458427E-2,2.5E0,8.557371E-3,5E-1,1E0,5E-1,3.5E0,1.2677605E-2,-3.56831E-2,5E-1,-2.4203507E-2,1.830344E-2,1.95E1,5E-1,-1.8592112E-2,-3.734151E-2,-2.6055915E-2,-3.659814E-2,-2.4281893E-2],"split_indices":[0,19,132,5,103,47,15,2,132,5,0,22,15,0,0,22,22,180,0,0,0,49,0,0,0,25,0,2147483647,2147483647,136,0,0,0,1,10,63,0,0,0,10,0,0,0,39,0,1,0,13,123,0,0,162,0,0,2,33,0,0,0,11,0,2,91,30,25,0,0,11,0,0,25,107,0,0,0,0,0],"split_type":[0,0,0,0,0,0,0,0,0,0,0,0,0,0,0,0,0,0,0,0,0,0,0,0,0,0,0,0,0,0,0,0,0,0,0,0,0,0,0,0,0,0,0,0,0,0,0,0,0,0,0,0,0,0,0,0,0,0,0,0,0,0,0,0,0,0,0,0,0,0,0,0,0,0,0,0,0],"sum_hessian":[4.243765E2,3.3425073E2,9.012577E1,3.222483E2,1.2002454E1,7.345428E1,1.667149E1,5.4669506E1,2.6757877E2,1.0384941E1,1.6175126E0,6.626998E1,7.184294E0,1.5125457E1,1.5460336E0,4.986085E1,4.808652E0,2.6641824E2,1.1605426E0,1.4148874E0,8.970054E0,6.4884796E1,1.3851829E0,6.0014715E0,1.1828226E0,3.5810005E1,1.4050846E1,1.2341006E0,3.5745516E0,2.6526395E2,1.1542809E0,6.2603176E1,2.2816212E0,2.5577108E1,1.0232898E1,2.6408612E2,1.1778287E0,1.1643353E0,1.1172861E0,2.2611128E1,2.965981E0,9.099602E0,1.133297E0,2.6239655E2,1.68958E0,2.0843952E1,1.7671748E0,1.05289185E2,1.5710736E2,1.8999953E0,1.8943956E1,1.04114044E2,1.1751403E0,1.540046E2,3.102772E0,1.02457146E2,1.6568958E0,1.116789E0,1.985983E0,1.0128545E2,1.1716938E0,9.7898994E1,3.3864553E0,7.7217354E1,2.0681644E1,1.1765089E0,2.2099464E0,7.540724E1,1.8101082E0,2.4179099E0,1.8263735E1,7.425155E1,1.1556929E0,1.62255E1,2.038235E0,7.245404E1,1.7975073E0],"tree_param":{"num_deleted":"2","num_feature":"210","num_nodes":"77","size_leaf_vector":"0"}},{"base_weights":[-7.9354876E-1,-1.1853065E0,6.8401635E-1,-1.2503663E0,1.2752652E0,9.964121E-1,-1.3623328E0,-1.3083428E0,4.8224816E-1,-9.378615E-3,1.4753287E0,-3.6084476E-1,1.2677222E0,-1.4849722E0,-1.9546981E-1,-1.3185627E0,1.3896164E0,1.4519515E0,-1.4905779E0,-1.1508294E0,1.3093647E0,1.327842E0,-1.4044095E0,-9.7618854E-1,-1.3846834E0,2.9059026E-1,-1.3692822E0,1.4838344E0,7.6293063E-1,1.3803825E0,-6.580305E-1,-1.0530553E0,1.1343743E0,-1.3934797E0,4.9997425E-1,-1.4593844E0,-8.741696E-1,1.426311E0,1.8937582E-1,-8.822346E-1,-1.480937E0,-1.4027472E0,-8.374697E-1,1.4593102E0,7.454723E-2,-9.600394E-1,1.3674037E0,-7.1876526E-1,-1.4518261E0,-1.3282558E0,-1.4509819E0,8.59469E-1,-1.4258173E0,1.4833013E0,4.3338677E-1,-6.150564E-1,-1.4720198E0,-1.3429224E0,-2.5508088E-1,-1.4607152E0,-1.1935905E0,-5.535836E-1,-1.4205842E0,-1.1276846E0,-1.4218987E0,-1.466514E0,-1.1017148E0,-1.7495159E-2,-1.4661463E0,-4.9485815E-1,-1.3928213E0,-1.2833582E0,6.492592E-1,-1.433365E0,-9.1361326E-1,-1.3754905E0,-6.472671E-1,-8.51866E-1,-4.6528205E-1,-1.4122757E0,1.1709664E0,-1.4444427E0,-9.996565E-1,-1.4383982E0,-7.9454356E-1,-1.4578166E0,-1.0978643E0,-8.787203E-1,-1.349043E0],"categories":[],"categories_nodes":[],"categories_segments":[],"categories_sizes":[],"default_left":[1,1,1,1,1,1,1,1,1,0,0,1,1,0,0,1,0,0,0,1,1,1,0,1,1,0,1,0,0,1,0,1,0,1,0,0,0,1,1,1,0,1,1,1,0,0,0,1,0,1,1,0,0,0,0,1,0,1,0,1,1,1,0,1,1,0,1,0,0,1,0,1,0,1,0,0,0,0,0,1,0,1,0,0,0,0,1,1,1],"id":18,"left_children":[1,3,5,7,9,11,13,15,17,-1,-1,19,21,-1,-1,23,-1,-1,-1,25,27,29,-1,31,33,-1,35,-1,-1,37,-1,39,-1,41,-1,-1,-1,43,45,47,-1,49,51,53,-1,-1,-1,55,-1,57,59,-1,-1,-1,-1,61,-1,63,-1,65,67,69,-1,71,73,-1,75,-1,-1,77,-1,79,-1,81,-1,-1,-1,-1,-1,83,-1,85,-1,-1,-1,-1,-1,-1,-1],"loss_changes":[2.4119061E2,5.287143E1,5.5980663E1,3.2292328E1,2.1940947E0,2.797483E1,1.6326847E0,8.744141E0,2.0229898E1,0E0,0E0,1.692504E1,1.0344559E1,0E0,0E0,6.868225E0,0E0,0E0,0E0,2.7742758E0,2.8044462E-1,6.5485916E0,0E0,8.298183E0,4.364197E0,0E0,2.096281E-1,0E0,0E0,3.273056E0,0E0,3.42844E0,0E0,1.2112427E0,0E0,0E0,0E0,2.5796204E0,3.3205645E0,3.1590023E0,0E0,7.1813965E-1,4.591159E0,1.3308945E0,0E0,0E0,0E0,2.0523167E0,0E0,1.552536E0,2.0840454E-1,0E0,0E0,0E0,0E0,1.1237917E0,0E0,1.5298309E0,0E0,1.4404297E-1,1.9572277E0,1.0510626E0,0E0,7.600174E0,2.9075623E-1,0E0,2.512567E-1,0E0,0E0,1.8625927E-1,0E0,8.081306E0,0E0,1.9473267E-1,0E0,0E0,0E0,0E0,0E0,2.700081E-1,0E0,1.5791321E-1,0E0,0E0,0E0,0E0,4.4051647E-2,0E0,0E0],"parents":[2147483647,0,0,1,1,2,2,3,3,4,4,5,5,6,6,7,7,8,8,11,11,12,12,15,15,19,19,20,20,21,21,23,23,24,24,26,26,29,29,31,31,33,33,37,37,38,38,39,39,41,41,42,42,43,43,47,47,49,49,50,50,55,55,57,57,59,59,60,60,61,61,63,63,64,64,66,66,69,69,71,71,73,73,79,79,81,81,86,86],"right_children":[2,4,6,8,10,12,14,16,18,-1,-1,20,22,-1,-1,24,-1,-1,-1,26,28,30,-1,32,34,-1,36,-1,-1,38,-1,40,-1,42,-1,-1,-1,44,46,48,-1,50,52,54,-1,-1,-1,56,-1,58,60,-1,-1,-1,-1,62,-1,64,-1,66,68,70,-1,72,74,-1,76,-1,-1,78,-1,80,-1,82,-1,-1,-1,-1,-1,84,-1,86,-1,-1,-1,-1,-1,-1,-1],"split_conditions":[5E-1,1.5E0,3.5E0,5E-1,5E-1,5E-1,1.5E0,6E0,5E-1,-2.3446538E-4,3.6883216E-2,5E-1,8E0,-3.7124306E-2,-4.8867455E-3,5E-1,3.474041E-2,3.629879E-2,-3.7264448E-2,5E-1,3.5E0,8.5E0,-3.511024E-2,2E0,7.5E0,7.2647566E-3,2.5E0,3.709586E-2,1.9073267E-2,3.5E0,-1.6450763E-2,2E0,2.8359357E-2,2.5E0,1.2499357E-2,-3.648461E-2,-2.185424E-2,2.5E0,3.5E0,5E-1,-3.7023425E-2,5E-1,4E0,2.5E0,1.8636808E-3,-2.4000986E-2,3.4185093E-2,2E0,-3.6295652E-2,5E-1,4.5E0,2.1486726E-2,-3.5645433E-2,3.7082534E-2,1.083467E-2,5E-1,-3.6800496E-2,5E-1,-6.3770222E-3,6E0,5E-1,5E-1,-3.5514604E-2,5E-1,2.5E0,-3.666285E-2,8.5E0,-4.3737897E-4,-3.665366E-2,5E-1,-3.4820534E-2,1.8E1,1.6231481E-2,2E0,-2.2840332E-2,-3.4387264E-2,-1.6181678E-2,-2.129665E-2,-1.1632051E-2,5E-1,2.927416E-2,1E0,-2.4991414E-2,-3.5959955E-2,-1.9863589E-2,-3.6445417E-2,-2.7446607E-2,-2.1968007E-2,-3.3726078E-2],"split_indices":[8,19,47,43,3,11,187,4,16,0,0,4,66,0,0,5,0,0,0,35,144,27,0,2,53,0,170,0,0,49,0,25,0,85,0,0,0,99,0,18,0,102,12,171,0,0,0,1,0,81,53,0,0,0,0,102,0,27,0,30,80,62,0,2,189,0,25,0,0,1,0,25,0,152,0,0,0,0,0,77,0,131,0,0,0,0,3,2147483647,2147483647],"split_type":[0,0,0,0,0,0,0,0,0,0,0,0,0,0,0,0,0,0,0,0,0,0,0,0,0,0,0,0,0,0,0,0,0,0,0,0,0,0,0,0,0,0,0,0,0,0,0,0,0,0,0,0,0,0,0,0,0,0,0,0,0,0,0,0,0,0,0,0,0,0,0,0,0,0,0,0,0,0,0,0,0,0,0,0,0,0,0,0,0],"sum_hessian":[4.1643372E2,3.2917648E2,8.7257225E1,3.207449E2,8.431601E0,7.574526E1,1.1511967E1,3.1038336E2,1.0361521E1,1.1489971E0,7.2826037E0,1.261324E1,6.313202E1,1.039244E1,1.1195261E0,3.09263E2,1.1203709E0,6.9646087E0,3.396912E0,8.584156E0,4.0290837E0,6.179208E1,1.339938E0,5.0313725E1,2.5894928E2,1.1253995E0,7.458757E0,2.9239528E0,1.1051309E0,6.022908E1,1.563002E0,4.8594036E1,1.7196897E0,2.5777222E2,1.1770458E0,6.1456017E0,1.313155E0,5.7973698E1,2.2553816E0,3.49481E1,1.3645937E1,2.5339641E2,4.3758216E0,5.6584408E1,1.38929E0,1.1509203E0,1.1044613E0,2.7330578E1,7.6175227E0,1.0071343E2,1.5268298E2,1.1146927E0,3.261129E0,5.5247856E1,1.3365493E0,2.4182728E1,3.1478496E0,9.933078E1,1.3826525E0,1.4666916E2,6.0138164E0,2.2624865E1,1.5578622E0,2.707359E1,7.225719E1,1.440341E2,2.6350613E0,1.1514885E0,4.8623276E0,2.12938E1,1.3310645E0,2.4918333E1,2.155256E0,7.048512E1,1.7720641E0,1.5179317E0,1.1171296E0,1.416402E0,1.98774E1,2.3715115E1,1.2032181E0,6.85024E1,1.9827188E0,2.262548E1,1.0896351E0,6.564851E1,2.8538895E0,1.7643768E0,1.0895128E0],"tree_param":{"num_deleted":"2","num_feature":"210","num_nodes":"89","size_leaf_vector":"0"}},{"base_weights":[-8.004873E-1,-1.093216E0,9.9065065E-1,-1.2262405E0,4.2086414E-1,1.2275027E0,-1.2173402E0,-1.258333E0,1.4735067E0,1.229789E0,-1.240083E0,-3.648213E-1,1.4322735E0,-1.7583576E-1,-1.4727547E0,-1.2824225E0,9.079043E-1,-1.1117362E0,1.4489664E0,-4.2191213E-1,-1.4489441E0,6.535766E-1,-1.6478529E0,1.4613453E0,2.464675E-1,-1.2965248E0,1.4483672E0,1.4332787E0,-2.8514266E-1,1.439977E0,-8.9079237E-1,-1.1599652E0,-1.4188977E0,-1.1864803E0,1.5334765E0,-1.4277474E0,-3.1732655E-1,-1.216094E0,3.478152E-1,-1.4368447E0,-6.548151E-1,-1.2604522E0,-5.5624545E-1,1.5732566E0,-1.4170622E0,-1.4422116E0,-6.02404E-1,-1.1643363E0,-1.4244486E0,1.8585131E0,-1.3439335E0,-1.4462993E0,-7.691255E-1,-1.2149417E0,-5.6075394E-1,-1.4520395E0,-6.6531503E-1,-1.4606417E0,-6.535226E-1,-1.450382E0,-9.580238E-1,-1.2431424E0,3.4362417E-1,2.6606566E-1,-1.4324257E0,-1.4544612E0,-1.0315424E0,-1.0899637E0,-1.3773594E0,1.2641379E0,-1.3785127E0,-9.086606E-1,-1.4456946E0,-1.4373504E0,-2.146955E-1,-8.2291144E-1,-1.4308532E0,-1.4569979E0,-6.9525E-1],"categories":[],"categories_nodes":[],"categories_segments":[],"categories_sizes":[],"default_left":[1,1,1,1,1,1,1,1,0,1,1,1,1,0,0,1,1,0,0,0,0,1,0,0,0,1,0,0,0,0,0,1,1,1,0,1,0,1,1,1,0,1,1,0,0,1,0,1,1,0,1,1,0,1,1,0,0,0,0,1,0,1,0,1,0,1,1,1,1,0,0,1,0,1,0,0,0,0,0],"id":19,"left_children":[1,3,5,7,9,11,13,15,-1,17,19,21,23,-1,-1,25,27,-1,-1,-1,-1,29,-1,-1,-1,31,-1,-1,-1,-1,-1,33,35,37,-1,39,-1,41,43,45,-1,47,49,-1,-1,51,-1,53,55,-1,57,59,-1,61,63,-1,-1,-1,-1,-1,-1,67,-1,69,-1,-1,-1,71,73,-1,-1,75,-1,77,-1,-1,-1,-1,-1],"loss_changes":[2.1595413E2,7.132822E1,3.0419453E1,2.8372772E1,3.8653404E1,1.7113007E1,1.479125E0,1.6897034E1,0E0,1.0076546E1,1.5511465E0,8.00207E0,1.562912E0,0E0,0E0,1.2436707E1,2.2943223E0,0E0,0E0,0E0,0E0,4.305927E0,0E0,0E0,0E0,5.1242676E0,0E0,0E0,0E0,0E0,0E0,1.0903275E1,1.5775452E0,6.799362E0,0E0,1.0668945E0,0E0,4.200943E0,6.4814897E0,6.435852E-1,0E0,1.9881439E0,1.8073372E1,0E0,0E0,3.3447266E-1,0E0,2.5802002E0,9.516449E-1,0E0,4.7855568E-1,1.8179321E-1,0E0,3.555008E0,5.005848E0,0E0,0E0,0E0,0E0,1.22283936E-1,0E0,1.4640121E0,0E0,6.11901E0,0E0,0E0,0E0,2.2643318E0,2.8614426E0,0E0,0E0,9.960613E-1,0E0,4.7338867E-1,0E0,0E0,0E0,0E0,0E0],"parents":[2147483647,0,0,1,1,2,2,3,3,4,4,5,5,6,6,7,7,9,9,10,10,11,11,12,12,15,15,16,16,21,21,25,25,31,31,32,32,33,33,35,35,37,37,38,38,39,39,41,41,42,42,45,45,47,47,48,48,50,50,51,51,53,53,54,54,59,59,61,61,63,63,67,67,68,68,71,71,73,73],"right_children":[2,4,6,8,10,12,14,16,-1,18,20,22,24,-1,-1,26,28,-1,-1,-1,-1,30,-1,-1,-1,32,-1,-1,-1,-1,-1,34,36,38,-1,40,-1,42,44,46,-1,48,50,-1,-1,52,-1,54,56,-1,58,60,-1,62,64,-1,-1,-1,-1,-1,-1,68,-1,70,-1,-1,-1,72,74,-1,-1,76,-1,78,-1,-1,-1,-1,-1],"split_conditions":[1.5E0,7.5E0,1.65E1,5E-1,1E0,5E-1,1.5E0,4.5E0,3.6837667E-2,5E-1,5E-1,2.5E0,2.5E1,-4.3958942E-3,-3.681887E-2,6E0,1.05E1,-2.7793406E-2,3.622416E-2,-1.0547804E-2,-3.62236E-2,1E0,-4.1196324E-2,3.6533635E-2,6.1616874E-3,5E-1,3.620918E-2,3.583197E-2,-7.1285665E-3,3.599943E-2,-2.226981E-2,2.5E0,6.5E0,5E-1,3.8336914E-2,4.5E0,-7.933164E-3,5E-1,2E0,5E0,-1.6370377E-2,5E-1,5E-1,3.9331418E-2,-3.5426553E-2,1.5E0,-1.50601E-2,1.5E0,5E-1,4.646283E-2,1.5E0,5.5E0,-1.9228138E-2,2.5E0,5E-1,-3.6300987E-2,-1.6632875E-2,-3.6516044E-2,-1.6338065E-2,-3.625955E-2,-2.3950595E-2,5E-1,8.590604E-3,1E0,-3.5810646E-2,-3.636153E-2,-2.578856E-2,2E0,5E-1,3.1603448E-2,-3.446282E-2,5E-1,-3.6142364E-2,4.5E0,-5.3673876E-3,-2.0572787E-2,-3.5771333E-2,-3.6424946E-2,-1.7381249E-2],"split_indices":[19,2,48,26,45,37,137,9,0,22,24,16,25,0,0,4,48,0,0,0,0,114,0,0,0,39,0,0,0,0,0,30,53,60,0,137,0,24,62,189,0,18,2,0,0,54,0,2,78,0,35,13,0,103,53,0,0,0,0,186,0,5,0,86,0,2147483647,2147483647,25,17,0,0,22,0,29,0,0,0,0,0],"split_type":[0,0,0,0,0,0,0,0,0,0,0,0,0,0,0,0,0,0,0,0,0,0,0,0,0,0,0,0,0,0,0,0,0,0,0,0,0,0,0,0,0,0,0,0,0,0,0,0,0,0,0,0,0,0,0,0,0,0,0,0,0,0,0,0,0,0,0,0,0,0,0,0,0,0,0,0,0,0,0],"sum_hessian":[4.1157004E2,3.537887E2,5.7781326E1,3.2523328E2,2.8555428E1,5.2223682E1,5.5576468E0,3.2146536E2,3.7679348E0,1.9220499E1,9.3349285E0,5.9417486E0,4.6281933E1,1.1277716E0,4.429875E0,3.1797015E2,3.4951925E0,1.6102775E0,1.761022E1,1.9598035E0,7.3751254E0,3.339836E0,2.6019127E0,4.5151737E1,1.1301945E0,3.163888E2,1.5813587E0,2.4126246E0,1.0825678E0,2.2174559E0,1.1223801E0,1.500223E2,1.663665E2,1.4861522E2,1.4070731E0,1.6501126E2,1.3552432E0,1.4582144E2,2.7937868E0,1.6300679E2,2.0044706E0,1.3655083E2,9.270602E0,1.6552929E0,1.138494E0,1.618927E2,1.1140947E0,8.660369E1,4.994714E1,2.246801E0,7.0238013E0,1.6080127E2,1.0914268E0,7.981091E1,6.792784E0,4.810739E1,1.8397477E0,5.91274E0,1.1110611E0,1.5927249E2,1.528775E0,7.841236E1,1.39855E0,3.5217364E0,3.2710478E0,1.5749138E2,1.7811146E0,3.704541E1,4.1366947E1,2.2060485E0,1.3156879E0,2.4774296E1,1.2271117E1,3.9314766E1,2.0521839E0,2.1501179E1,3.273116E0,3.820688E1,1.1078858E0],"tree_param":{"num_deleted":"2","num_feature":"210","num_nodes":"79","size_leaf_vector":"0"}},{"base_weights":[-7.661264E-1,-1.1445916E0,6.648508E-1,-1.2265021E0,7.768176E-1,1.1059238E0,-1.0795715E0,-1.2429017E0,1.4643811E0,1.1951795E0,-1.1838131E0,1.3230582E0,-1.2021902E0,-1.3959141E0,1.3753883E0,-8.1129646E-1,-1.332307E0,-8.8565695E-1,1.4485999E0,-1.4732893E0,-7.8285384E-1,1.3850747E0,-1.4002259E0,-1.4238131E0,-2.248234E-1,-7.1705806E-1,-1.4430096E0,-9.348719E-1,1.4965104E0,-1.344126E0,6.9051015E-1,1.4455199E0,-3.4558305E-1,-7.775212E-1,-1.4233707E0,-1.3663051E0,-7.622441E-1,-8.451908E-1,2.2901972E-1,-1.3720925E0,-1.4953381E-1,1.537036E0,-1.437579E0,-9.0240157E-1,5.2289486E-1,1.7449471E0,-1.4268565E0,-1.2848638E0,-1.4321543E0,-7.979793E-1,-1.4214748E0,-1.3578172E0,-6.859948E-1,-1.4382877E0,-9.5262295E-1,-7.011915E-1,-1.4520013E0,-1.3906765E0,-9.5989525E-1,-1.3399112E0,2.118968E-1,-6.4817965E-1,-1.3608774E0,-1.4106184E0,-7.110584E-1,4.950497E-1,-1.4179478E0,-1.4478395E0,-9.868554E-1,1.7483656E0,-1.1289538E0,-5.9370285E-1,-1.3626814E0,-1.4199857E0,-1.0900042E0,9.2185885E-2,-1.3660641E0,-1.4268154E0,-6.840643E-1,-5.377162E-1,-1.3774949E0,-6.5314937E-1,-1.3507963E0,-6.1063915E-1,2.1048483E-1,-9.247235E-1,-5.758527E-1],"categories":[],"categories_nodes":[],"categories_segments":[],"categories_sizes":[],"default_left":[1,1,1,1,1,1,1,1,0,1,1,1,1,1,0,1,1,0,0,0,0,1,0,0,0,0,0,1,0,1,0,0,0,1,0,1,1,1,1,1,0,0,0,1,0,0,0,1,1,1,0,1,1,0,0,1,0,1,1,1,1,1,0,1,1,0,0,1,1,0,1,1,0,0,1,0,0,0,0,1,0,0,0,1,0,0,0],"id":20,"left_children":[1,3,5,7,9,11,13,15,-1,17,19,21,23,25,-1,27,29,-1,-1,-1,-1,31,-1,-1,-1,-1,-1,33,-1,35,-1,-1,-1,37,-1,39,41,43,45,47,-1,-1,-1,49,-1,-1,-1,51,53,55,-1,57,59,-1,-1,61,-1,63,65,-1,69,71,-1,73,75,-1,-1,-1,-1,-1,77,79,-1,-1,81,-1,-1,-1,-1,83,-1,-1,-1,85,-1,-1,-1],"loss_changes":[2.2063506E2,5.079001E1,6.570851E1,1.3817047E1,1.0994612E1,3.4284058E1,1.3592087E1,1.1744568E1,0E0,5.9048204E0,1.6056585E-1,1.0712875E1,1.2475262E0,3.8679504E-1,0E0,1.5244728E1,6.172455E0,0E0,0E0,0E0,0E0,6.4255905E0,0E0,0E0,0E0,0E0,0E0,3.7582817E0,0E0,3.1590881E0,0E0,0E0,0E0,2.6274662E0,0E0,1.6937866E0,1.4988105E1,2.857088E0,6.5014358E0,1.0852966E0,0E0,0E0,0E0,1.7563553E0,0E0,0E0,0E0,4.265671E0,2.8240967E-1,1.7305565E0,0E0,1.0280304E0,6.5080953E0,0E0,0E0,8.003588E-1,0E0,1.0087738E0,4.8011374E0,1.0095501E-1,9.955968E0,8.4196377E-1,0E0,8.366394E-2,1.3460222E0,0E0,0E0,0E0,0E0,0E0,2.4563432E-1,9.004216E-1,0E0,0E0,2.1758127E-1,0E0,0E0,0E0,0E0,1.152668E0,0E0,0E0,0E0,1.5500736E-1,0E0,0E0,0E0],"parents":[2147483647,0,0,1,1,2,2,3,3,4,4,5,5,6,6,7,7,9,9,10,10,11,11,12,12,13,13,15,15,16,16,21,21,27,27,29,29,33,33,35,35,36,36,37,37,38,38,39,39,43,43,47,47,48,48,49,49,51,51,52,52,55,55,57,57,58,58,59,59,60,60,61,61,63,63,64,64,70,70,71,71,74,74,79,79,83,83],"right_children":[2,4,6,8,10,12,14,16,-1,18,20,22,24,26,-1,28,30,-1,-1,-1,-1,32,-1,-1,-1,-1,-1,34,-1,36,-1,-1,-1,38,-1,40,42,44,46,48,-1,-1,-1,50,-1,-1,-1,52,54,56,-1,58,60,-1,-1,62,-1,64,66,-1,70,72,-1,74,76,-1,-1,-1,-1,-1,78,80,-1,-1,82,-1,-1,-1,-1,84,-1,-1,-1,86,-1,-1,-1],"split_conditions":[1.5E0,5E-1,1.5E0,6.5E0,5.5E0,2.5E0,5E-1,5E-1,3.6609527E-2,1.5E0,1.5E0,1.2E1,5E-1,5E-1,3.438471E-2,1.5E0,5E-1,-2.2141425E-2,3.6215E-2,-3.6832232E-2,-1.9571347E-2,3.5E0,-3.5005648E-2,-3.5595328E-2,-5.6205853E-3,-1.7926453E-2,-3.6075242E-2,5E-1,3.741276E-2,5E-1,1.7262755E-2,3.6137998E-2,-8.639577E-3,5E-1,-3.5584267E-2,5E-1,5E-1,5E-1,5E-1,5E-1,-3.7383453E-3,3.84259E-2,-3.5939477E-2,5E-1,1.30723715E-2,4.362368E-2,-3.5671413E-2,5E-1,5E0,2E0,-3.553687E-2,5E-1,5E-1,-3.5957195E-2,-2.3815574E-2,5E-1,-3.6300033E-2,5E-1,2.5E0,-3.349778E-2,5E-1,5E-1,-3.4021936E-2,2.5E0,5E0,1.2376242E-2,-3.5448696E-2,-3.619599E-2,-2.4671385E-2,4.370914E-2,5E-1,5E-1,-3.4067035E-2,-3.5499644E-2,5E-1,2.3046471E-3,-3.4151603E-2,-3.5670385E-2,-1.7101608E-2,2E0,-3.4437373E-2,-1.6328735E-2,-3.376991E-2,5E-1,5.262121E-3,-2.3118088E-2,-1.4396317E-2],"split_indices":[0,19,132,4,103,47,15,5,0,5,54,22,161,